{"learner":{"attributes":{"best_iteration":"99","best_ntree_limit":"100","scikit_learn":"{\"use_label_encoder\": false, \"n_estimators\": 100, \"objective\": \"binary:logistic\", \"max_depth\": 10, \"max_leaves\": null, \"max_bin\": null, \"grow_policy\": null, \"learning_rate\": 0.15, \"verbosity\": null, \"booster\": null, \"tree_method\": null, \"gamma\": null, \"min_child_weight\": null, \"max_delta_step\": null, \"subsample\": null, \"sampling_method\": null, \"colsample_bytree\": null, \"colsample_bylevel\": null, \"colsample_bynode\": null, \"reg_alpha\": null, \"reg_lambda\": null, \"scale_pos_weight\": null, \"base_score\": null, \"missing\": NaN, \"num_parallel_tree\": null, \"random_state\": 42, \"n_jobs\": null, \"monotone_constraints\": null, \"interaction_constraints\": null, \"importance_type\": null, \"gpu_id\": null, \"validate_parameters\": null, \"predictor\": null, \"enable_categorical\": false, \"max_cat_to_onehot\": null, \"eval_metric\": null, \"early_stopping_rounds\": null, \"callbacks\": null, \"classes_\": [0, 1], \"n_classes_\": 2, \"_estimator_type\": \"classifier\"}"},"feature_names":[],"feature_types":[],"gradient_booster":{"model":{"gbtree_model_param":{"num_parallel_tree":"1","num_trees":"100","size_leaf_vector":"0"},"tree_info":[0,0,0,0,0,0,0,0,0,0,0,0,0,0,0,0,0,0,0,0,0,0,0,0,0,0,0,0,0,0,0,0,0,0,0,0,0,0,0,0,0,0,0,0,0,0,0,0,0,0,0,0,0,0,0,0,0,0,0,0,0,0,0,0,0,0,0,0,0,0,0,0,0,0,0,0,0,0,0,0,0,0,0,0,0,0,0,0,0,0,0,0,0,0,0,0,0,0,0,0],"trees":[{"base_weights":[-0E0,-3.8954297E-1,1.4334964E0,-7.317182E-1,1.5550857E0,-1.752809E0,1.5002377E0,-9.6058345E-1,9.904883E-1,-1.8461539E0,1.6696526E0,-1.8390805E0,1E0,-1.2727273E0,1.5436987E0,-1.9686075E0,-7.5903916E-1,1.3747091E0,-7.241379E-1,-1.8947369E0,-0E0,-4.2424244E-1,1.6987818E0,-1.9058824E0,5E-1,-1.4285715E0,1.2E0,-1.8431373E0,1.563919E0,1E0,-1.9726305E0,-1.9064327E0,-6.008628E-1,5.830904E-3,1.5819563E0,-9.7821784E-1,9.3670887E-1,-5E-1,-1.918919E0,1.2727273E0,-7.118644E-1,-5.365854E-1,1.7177311E0,-5E-1,-1.9277109E0,-1.5409836E0,1E0,-1.4285715E0,1.5784851E0,-1.9756469E0,5E-1,-1.9418306E0,-4E-1,-6.964058E-1,1.1730337E0,-1.7142858E-1,1.75E0,6.605505E-1,1.6780246E0,-1.1699779E0,6.4285713E-1,-8.8E-1,1.6551725E0,-5E-1,-1.9444444E0,-1.1351352E0,-0E0,-1.6190476E0,5E-1,-8.75E-1,1.7348315E0,-1.9506173E0,-5E-1,-1.5932204E0,-0E0,5E-1,-1.6842105E0,-1.5929204E-1,1.6019777E0,-1.9786694E0,5E-1,-1.9519314E0,6.666667E-1,1.3333334E0,-7.692308E-1,-1.9199448E0,-5.784509E-1,-1.2727273E0,1.3977969E0,-4.8333332E-1,7.848101E-1,1.8139535E0,3.6871508E-1,1.7085829E0,-1.04E0,-1.2636364E0,1.5294118E0,1.3846154E0,-8.5714287E-1,1.1111112E0,-1.6E0,1.7777778E0,-0E0,-1.375E0,2.2222222E-1,-1.1111112E0,4.7619048E-1,-1.1111112E0,1.1578947E0,1E0,-1.2857143E0,1.7448727E0,-1.2941177E0,-1.6491228E0,-0E0,-5E-1,-1.7647059E0,2.7160493E-1,-1.1111112E0,-1.2222222E0,1.6137999E0,-1.9816934E0,2.2222222E-1,1E0,-1.9587275E0,-0E0,1E0,9.0909094E-1,-1.1111112E0,-1.9388039E0,4E-1,-1.8063439E0,-4.7215006E-1,1.1111112E0,-1.5E0,1.4848485E0,-1.1724138E0,-7.6E-1,8.181818E-1,-1.5E0,1.2835821E0,5.479452E-2,1.5675676E0,-1E0,1.7323943E0,-1.6190476E0,1E0,-1.3664303E0,1.0476191E0,1.7575758E0,-4E-1,1E0,-1.5294118E0,5E-1,1.84E0,-1.5384616E0,-4E-1,1E0,1.1764706E-1,1.4666667E0,-0E0,-0E0,-1.5E0,-9.0909094E-1,1.756506E0,-1.6981132E0,-6.666667E-1,-1.4666667E0,6.2857145E-1,-1.6E0,-4E-1,-0E0,-1.6923077E0,-3.859649E-1,1.627233E0,-1.9837109E0,-0E0,1E0,-1.965547E0,4E-1,-1.3846154E0,-1.9551821E0,2.857143E-1,1.1111112E0,-4E-1,-1.9352381E0,-8.684211E-1,-1.7355719E0,-3.787468E-1,-1.6363636E0,-0E0,-1.1666666E0,1.5595855E0,-3.3333334E-1,-1.4285715E0,-1.5384616E0,-2.5396827E-1,-1.1428572E0,1.5294118E0,-9.0909094E-1,1.6E0,1.4782609E0,-2.0472442E-1,5E-1,-1.5E0,4.516129E-1,1.7699482E0,-1.5025907E0,4.8780486E-2,-5E-1,1.5294118E0,-1.5384616E-1,5E-1,-0E0,-1.25E0,-1.4285715E0,1.7650261E0,-1.7254902E0,-5E-1,-1E0,-0E0,-1.2E0,8.75E-1,-1.1111112E0,1.3333334E-1,-1.1111112E0,1.1111112E0,3.75E-1,-1.1724138E0,1.6961432E0,1.2268908E0,-1.9857324E0,-0E0,-1.9723661E0,4E-1,-1.8181819E-1,-1.625E0,1E0,-1.9662921E0,1.1111112E0,-6.666667E-1,-1.9502869E0,1E0,1.2941177E0,-1.1079136E0,1.1111112E0,-1.7552743E0,-4.3023533E-1,1.8367347E0,-1.7377049E0,-2.2222222E-1,-1.4E0,-0E0,1.6015728E0,-1.3846154E0,-1E0,5E-1,-1.7297298E0,1E0,1.4432989E-1,-1.3939394E0,1.7333333E0,-0E0,1.7142857E0,-0E0,-4.347826E-1,1.5E0,4.0816326E-2,1.5294118E0,-1.2727273E0,1.7836714E0,-1.5672823E0,1.2727273E0,1.4E0,-1.04E0,2.2222222E-1,-5E-1,1.7766128E0,-4.6153846E-1,-5E-1,-1.755102E0,-9.0909094E-1,1.1578947E0,-8E-1,1.1111112E0,-3.529412E-1,9.4736844E-1,-2.2222222E-1,-1.3333334E0,1.0024937E0,1.7383993E0,-9.189189E-1,1.2912705E0],"categories":[],"categories_nodes":[],"categories_segments":[],"categories_sizes":[],"default_left":[1,1,0,1,0,1,0,0,1,1,0,1,0,1,0,0,0,0,1,0,0,0,0,0,0,1,0,0,0,0,1,1,1,1,0,1,0,0,0,0,0,0,0,0,0,1,0,0,0,1,0,1,0,0,0,1,0,0,1,1,1,0,1,0,0,1,0,0,0,0,1,0,0,1,0,0,0,1,0,1,0,0,0,0,0,1,0,0,1,1,0,0,1,0,0,1,0,0,0,0,0,0,0,1,0,0,0,0,1,0,0,0,0,1,0,0,0,0,0,0,0,1,0,0,0,0,0,0,0,1,0,1,0,0,0,0,0,0,0,0,0,0,0,1,0,0,0,1,0,0,0,0,0,0,0,0,0,0,0,0,0,0,0,0,0,1,0,0,0,0,0,0,0,0,1,1,0,0,1,0,0,0,0,0,0,1,0,0,1,1,0,1,1,0,0,1,1,0,1,0,1,0,1,0,0,1,0,1,1,0,0,0,0,0,0,0,1,0,0,0,0,0,0,0,0,0,0,0,0,0,0,0,0,0,0,0,0,0,0,0,0,0,0,0,0,0,0,0,0,0,0,0,0,0,0,0,0,0,0,0,0,0,0,0,0,0,0,0,0,0,0,0,0,0,0,0,0,0,0,0,0,0,0,0,0,0,0,0,0,0,0,0,0],"id":0,"left_children":[1,3,5,7,9,11,13,15,17,19,21,23,-1,25,27,29,31,33,35,37,-1,39,41,43,-1,45,-1,-1,47,-1,49,51,53,55,57,59,61,-1,63,-1,65,67,69,-1,71,73,-1,75,77,79,-1,81,83,85,87,89,-1,91,93,95,97,99,101,-1,-1,103,105,-1,107,109,111,-1,-1,113,-1,-1,115,117,119,121,-1,123,125,-1,127,129,131,133,135,137,139,-1,141,143,145,147,-1,149,151,-1,-1,153,-1,155,-1,-1,157,-1,159,-1,161,163,-1,165,-1,-1,-1,167,169,171,173,175,-1,-1,177,-1,-1,-1,179,181,183,185,187,-1,189,191,193,195,197,-1,199,201,-1,203,205,-1,-1,207,209,-1,-1,-1,-1,-1,-1,-1,-1,-1,211,-1,-1,-1,-1,213,215,217,219,-1,221,-1,223,225,-1,227,229,231,-1,-1,233,-1,235,237,239,-1,-1,241,243,245,247,249,-1,251,253,255,-1,257,259,-1,261,-1,263,-1,265,-1,-1,267,269,271,273,-1,-1,275,-1,-1,-1,-1,277,279,-1,-1,-1,-1,281,-1,283,-1,-1,285,287,289,291,-1,-1,-1,-1,-1,-1,-1,-1,-1,-1,-1,-1,-1,-1,-1,-1,-1,-1,-1,-1,-1,-1,-1,-1,-1,-1,-1,-1,-1,-1,-1,-1,-1,-1,-1,-1,-1,-1,-1,-1,-1,-1,-1,-1,-1,-1,-1,-1,-1,-1,-1,-1,-1,-1,-1,-1,-1,-1,-1,-1,-1,-1],"loss_changes":[5.609492E3,5.257162E3,4.5910107E2,2.648774E3,4.6376953E2,1.2407333E1,2.5540918E2,1.2033042E3,5.2045526E2,3.4979706E0,7.051245E1,7.7500305E0,0E0,1.4431168E1,1.4470996E2,1.3765869E1,8.960984E2,1.8283301E2,6.2104523E1,3.2218933E-1,0E0,8.959425E0,4.873413E1,3.4040833E-1,0E0,1.0140518E1,0E0,0E0,9.201709E1,0E0,8.345459E0,3.113794E1,7.3743445E2,2.6811369E1,4.8439453E1,3.9997902E1,2.7235023E1,0E0,3.6787415E-1,0E0,4.444342E0,1.2310685E1,5.1152588E1,0E0,3.8189697E-1,2.455124E0,0E0,6.018797E0,8.393555E1,8.363525E0,0E0,1.6701416E1,1.0625641E1,5.941836E2,1.24091E2,2.3866938E1,0E0,1.7676075E1,4.382495E1,3.056456E1,1.6763737E1,1.0737778E1,2.9425316E0,0E0,0E0,3.317192E0,3.9682539E0,0E0,7.6461983E0,7.4464283E0,3.6093994E1,0E0,0E0,2.6274185E0,0E0,0E0,2.3220062E-2,1.18881235E1,6.950049E1,6.992676E0,0E0,1.3644531E1,6.666666E-1,0E0,8.46931E0,1.6624634E1,4.9038196E2,1.2095961E1,4.7439972E1,2.222697E1,2.4432459E1,0E0,1.675552E1,3.4044678E1,9.0019045E0,2.7565613E1,0E0,7.192539E0,8.084034E0,0E0,0E0,1.5333176E-1,0E0,6.5961456E-1,0E0,0E0,8.683474E-1,0E0,1.6982455E0,0E0,1.9285717E0,3.5844482E1,0E0,2.3965454E-1,0E0,0E0,0E0,1.3487125E1,2.4888897E0,5.1709404E0,5.4743164E1,3.9311523E0,0E0,0E0,1.3698486E1,0E0,0E0,0E0,5.2034187E0,1.3656494E1,2.5777779E0,3.4526794E1,4.082395E2,0E0,3.68182E0,4.1056458E1,1.0821018E0,1.9305593E1,1.7090145E1,0E0,1.3075714E1,1.3786337E1,0E0,4.5E0,2.3105469E1,0E0,0E0,2.0450851E1,4.6792717E0,0E0,0E0,0E0,0E0,0E0,0E0,0E0,0E0,0E0,5.1809955E-1,0E0,0E0,0E0,0E0,1.7045455E0,3.2500977E1,6.477356E-3,6.666666E-1,0E0,8.935715E0,0E0,2.0444443E0,5.5555553E0,0E0,8.9677105E0,5.3128906E1,3.9389648E0,0E0,0E0,1.0153076E1,0E0,2.5236015E0,1.36875E1,3.4920633E0,0E0,0E0,1.3545349E1,2.111443E1,1.5312866E1,3.6898563E2,1.9784698E0,0E0,1.6333332E0,2.607602E1,2.1666667E0,0E0,1.1197506E1,1.4503712E1,0E0,2.65098E0,0E0,2.742855E0,0E0,1.3104074E1,0E0,0E0,6.800295E0,2.2416992E1,1.9320328E1,1.653561E1,0E0,0E0,5.3418803E-1,0E0,0E0,0E0,0E0,2.9256348E1,4.7821045E-2,0E0,0E0,0E0,0E0,9.127991E0,0E0,4.311111E0,0E0,0E0,3.6675696E0,8.122606E-1,4.822461E1,4.2285248E1,0E0,0E0,0E0,0E0,0E0,0E0,0E0,0E0,0E0,0E0,0E0,0E0,0E0,0E0,0E0,0E0,0E0,0E0,0E0,0E0,0E0,0E0,0E0,0E0,0E0,0E0,0E0,0E0,0E0,0E0,0E0,0E0,0E0,0E0,0E0,0E0,0E0,0E0,0E0,0E0,0E0,0E0,0E0,0E0,0E0,0E0,0E0,0E0,0E0,0E0,0E0,0E0,0E0,0E0,0E0,0E0,0E0,0E0,0E0,0E0,0E0,0E0],"parents":[2147483647,0,0,1,1,2,2,3,3,4,4,5,5,6,6,7,7,8,8,9,9,10,10,11,11,13,13,14,14,15,15,16,16,17,17,18,18,19,19,21,21,22,22,23,23,25,25,28,28,30,30,31,31,32,32,33,33,34,34,35,35,36,36,38,38,40,40,41,41,42,42,44,44,45,45,47,47,48,48,49,49,51,51,52,52,53,53,54,54,55,55,57,57,58,58,59,59,60,60,61,61,62,62,65,65,66,66,68,68,69,69,70,70,73,73,76,76,77,77,78,78,79,79,81,81,82,82,84,84,85,85,86,86,87,87,88,88,89,89,90,90,92,92,93,93,94,94,95,95,97,97,98,98,101,101,103,103,106,106,108,108,110,110,111,111,113,113,117,117,118,118,119,119,120,120,121,121,124,124,128,128,129,129,130,130,131,131,132,132,134,134,135,135,136,136,137,137,138,138,140,140,141,141,143,143,144,144,147,147,148,148,158,158,163,163,164,164,165,165,166,166,168,168,170,170,171,171,173,173,174,174,175,175,178,178,180,180,181,181,182,182,185,185,186,186,187,187,188,188,189,189,191,191,192,192,193,193,195,195,196,196,198,198,200,200,202,202,205,205,206,206,207,207,208,208,211,211,216,216,217,217,222,222,224,224,227,227,228,228,229,229,230,230],"right_children":[2,4,6,8,10,12,14,16,18,20,22,24,-1,26,28,30,32,34,36,38,-1,40,42,44,-1,46,-1,-1,48,-1,50,52,54,56,58,60,62,-1,64,-1,66,68,70,-1,72,74,-1,76,78,80,-1,82,84,86,88,90,-1,92,94,96,98,100,102,-1,-1,104,106,-1,108,110,112,-1,-1,114,-1,-1,116,118,120,122,-1,124,126,-1,128,130,132,134,136,138,140,-1,142,144,146,148,-1,150,152,-1,-1,154,-1,156,-1,-1,158,-1,160,-1,162,164,-1,166,-1,-1,-1,168,170,172,174,176,-1,-1,178,-1,-1,-1,180,182,184,186,188,-1,190,192,194,196,198,-1,200,202,-1,204,206,-1,-1,208,210,-1,-1,-1,-1,-1,-1,-1,-1,-1,212,-1,-1,-1,-1,214,216,218,220,-1,222,-1,224,226,-1,228,230,232,-1,-1,234,-1,236,238,240,-1,-1,242,244,246,248,250,-1,252,254,256,-1,258,260,-1,262,-1,264,-1,266,-1,-1,268,270,272,274,-1,-1,276,-1,-1,-1,-1,278,280,-1,-1,-1,-1,282,-1,284,-1,-1,286,288,290,292,-1,-1,-1,-1,-1,-1,-1,-1,-1,-1,-1,-1,-1,-1,-1,-1,-1,-1,-1,-1,-1,-1,-1,-1,-1,-1,-1,-1,-1,-1,-1,-1,-1,-1,-1,-1,-1,-1,-1,-1,-1,-1,-1,-1,-1,-1,-1,-1,-1,-1,-1,-1,-1,-1,-1,-1,-1,-1,-1,-1,-1,-1],"split_conditions":[9.025204E-2,1.0098703E-1,4.7192758E-1,9.0477504E-2,3.4883627E-1,1.1580136E-1,1.7314425E0,1.0016286E0,1.8253186E-1,2.040199E-1,4.1294104E-1,1.6131565E-1,1.5E-1,1.5059903E-1,1.1541516E-1,3.5880446E-1,6.856896E-2,2.7202636E-1,8.518136E-2,4.5833057E-1,-0E0,5.876003E-1,3.051623E-1,4.5738357E-1,7.5E-2,9.85911E-2,1.8E-1,-2.764706E-1,9.368732E-1,1.5E-1,2.0736706E-1,1.1674922E-1,1.0344377E-1,2.2640234E-1,1.839047E-1,1.0651736E-1,1.9365269E-1,-7.5E-2,4.659708E-1,1.909091E-1,2.7907813E-1,6.312755E-1,2.849759E-1,-7.5E-2,1.5768717E-1,1.530467E-1,1.5E-1,2.0149104E-1,5.0184095E-1,2.0471019E-1,7.5E-2,1.7781833E-1,3.4762198E-1,1.0053E-1,3.813486E-1,1.5125664E-1,2.6250002E-1,3.8944978E-1,4.1650176E-1,1.0734306E-1,2.405512E-1,1.8344274E-1,1.7416106E-1,-7.5E-2,-2.916667E-1,1.3294764E-1,1.0590591E0,-2.4285716E-1,3.4381938E-1,7.3027086E-1,4.559664E-1,-2.925926E-1,-7.5E-2,6.436602E-2,-0E0,7.5E-2,9.8622896E-2,1.2945971E-1,3.0742043E-1,2.580617E-1,7.5E-2,3.729428E-1,2.3324065E-1,2.0000002E-1,1.3135344E-1,1.4997411E-1,7.82845E-2,3.6712044E-1,1.965787E-1,7.937024E-2,5.6750697E-1,2.7209303E-1,1.3786241E-1,3.5110763E-1,3.1637585E-1,1.656667E-1,2.2941178E-1,4.167325E-1,4.4774783E-1,1.6666669E-1,-2.4000001E-1,2.592886E-1,-0E0,1.0469404E-1,3.3333335E-2,-1.6666669E-1,1.7933862E-1,-1.6666669E-1,1.4867768E-1,1.5E-1,4.5861876E-1,4.2468363E-1,-1.9411767E-1,2.749681E-1,-0E0,-7.5E-2,-2.647059E-1,7.9367924E-1,5.943249E-1,1.0808171E-1,5.313736E-1,2.1769398E-1,3.3333335E-2,1.5E-1,3.7039906E-1,-0E0,1.5E-1,1.3636364E-1,3.5939348E-1,1.753297E-1,2.5946993E-1,6.605865E-2,2.000001E0,1.6666669E-1,1.4760906E-1,5.1889753E-1,1.3469397E-1,4.53067E-1,5.045788E-1,-2.2500001E-1,1.1523705E-1,4.3517435E-1,2.3513515E-1,1.8466347E-1,1.4492202E-1,-2.4285716E-1,1.5E-1,8.133227E-2,5.790822E-1,2.6363638E-1,-6.0000002E-2,1.5E-1,-2.2941178E-1,7.5E-2,2.7600002E-1,-2.3076925E-1,-6.0000002E-2,1.5E-1,3.3850944E-1,2.2000001E-1,-0E0,-0E0,-2.2500001E-1,1.5419436E-1,1.4703922E-1,4.3500704E-1,6.665475E-1,-2.2000001E-1,2.2244534E-1,-2.4000001E-1,8.335561E-1,1.0405569E-1,-2.5384617E-1,1.306311E-1,1.2138711E-1,5.199504E-2,-0E0,1.5E-1,1.1803578E-1,6.0000002E-2,1.1156587E-1,4.231667E-1,2.626769E-1,1.6666669E-1,-6.0000002E-2,1.4847171E-1,1.8382047E-1,8.2943E-1,1.8540947E-1,1.9642603E-1,-0E0,1.7169878E-1,2.74249E-1,1.0244736E-1,-2.1428573E-1,1.911461E-1,1.3784182E-1,-1.7142859E-1,1.767546E-1,-1.3636364E-1,2.039895E-1,2.2173914E-1,1.7068392E-1,7.5E-2,-2.2500001E-1,1.2292646E-1,2.9089162E-1,2.4157494E-1,9.555613E-2,-7.5E-2,2.2941178E-1,3.1148535E-1,7.5E-2,-0E0,-1.875E-1,-2.1428573E-1,2.7709925E-1,6.356694E-1,-7.5E-2,-1.5E-1,-0E0,-1.8E-1,1.0808496E0,-1.6666669E-1,2.8070417E-1,-1.6666669E-1,1.6666669E-1,3.1819192E-1,1.830464E-1,5.038247E-1,1.4894593E0,-2.9785988E-1,-0E0,-2.9585493E-1,6.0000002E-2,-2.727273E-2,-2.4375E-1,1.5E-1,-2.9494384E-1,1.6666669E-1,-1.0000001E-1,-2.9254305E-1,1.5E-1,1.9411767E-1,-1.6618705E-1,1.6666669E-1,-2.6329115E-1,-6.4535305E-2,2.7551022E-1,-2.6065573E-1,-3.3333335E-2,-2.1000001E-1,-0E0,2.4023592E-1,-2.0769233E-1,-1.5E-1,7.5E-2,-2.5945947E-1,1.5E-1,2.1649484E-2,-2.0909092E-1,2.6000002E-1,-0E0,2.5714287E-1,-0E0,-6.521739E-2,2.2500001E-1,6.122449E-3,2.2941178E-1,-1.909091E-1,2.675507E-1,-2.3509236E-1,1.909091E-1,2.1000001E-1,-1.56E-1,3.3333335E-2,-7.5E-2,2.6649192E-1,-6.923077E-2,-7.5E-2,-2.632653E-1,-1.3636364E-1,1.7368421E-1,-1.20000005E-1,1.6666669E-1,-5.294118E-2,1.4210527E-1,-3.3333335E-2,-2.0000002E-1,1.5037407E-1,2.607599E-1,-1.3783784E-1,1.9369058E-1],"split_indices":[239,340,213,444,213,479,398,213,465,131,140,353,0,334,234,403,592,255,340,102,0,215,407,45,0,429,0,0,277,0,310,103,70,359,321,234,158,0,297,0,140,1,235,0,239,233,0,334,23,321,0,607,560,375,624,197,0,353,434,70,435,110,131,0,0,70,623,0,523,589,402,0,0,399,0,0,239,234,404,503,0,207,53,0,131,196,431,31,447,234,398,0,162,184,164,586,0,431,530,0,0,69,0,592,0,0,375,0,234,0,399,145,0,547,0,0,0,325,639,97,133,368,0,0,424,0,0,0,487,414,460,479,398,0,70,180,70,321,586,0,70,147,0,25,234,0,0,239,161,0,0,0,0,0,0,0,0,0,140,0,0,0,0,431,239,3,62,0,246,0,4,34,0,239,234,375,0,0,637,0,460,579,31,0,0,553,315,649,18,153,0,334,402,592,0,9,523,0,158,0,140,0,460,0,0,89,46,315,431,0,0,140,0,0,0,0,35,35,0,0,0,0,133,0,23,0,0,133,375,231,459,0,0,0,0,0,0,0,0,0,0,0,0,0,0,0,0,0,0,0,0,0,0,0,0,0,0,0,0,0,0,0,0,0,0,0,0,0,0,0,0,0,0,0,0,0,0,0,0,0,0,0,0,0,0,0,0,0,0,0,0,0,0],"split_type":[0,0,0,0,0,0,0,0,0,0,0,0,0,0,0,0,0,0,0,0,0,0,0,0,0,0,0,0,0,0,0,0,0,0,0,0,0,0,0,0,0,0,0,0,0,0,0,0,0,0,0,0,0,0,0,0,0,0,0,0,0,0,0,0,0,0,0,0,0,0,0,0,0,0,0,0,0,0,0,0,0,0,0,0,0,0,0,0,0,0,0,0,0,0,0,0,0,0,0,0,0,0,0,0,0,0,0,0,0,0,0,0,0,0,0,0,0,0,0,0,0,0,0,0,0,0,0,0,0,0,0,0,0,0,0,0,0,0,0,0,0,0,0,0,0,0,0,0,0,0,0,0,0,0,0,0,0,0,0,0,0,0,0,0,0,0,0,0,0,0,0,0,0,0,0,0,0,0,0,0,0,0,0,0,0,0,0,0,0,0,0,0,0,0,0,0,0,0,0,0,0,0,0,0,0,0,0,0,0,0,0,0,0,0,0,0,0,0,0,0,0,0,0,0,0,0,0,0,0,0,0,0,0,0,0,0,0,0,0,0,0,0,0,0,0,0,0,0,0,0,0,0,0,0,0,0,0,0,0,0,0,0,0,0,0,0,0,0,0,0,0,0,0,0,0,0,0,0,0,0,0,0,0,0,0,0,0,0,0,0,0,0,0],"sum_hessian":[1.00435E4,7.898E3,2.1455E3,6.71675E3,1.18125E3,4.35E1,2.102E3,5.92925E3,7.875E2,3.8E1,1.14325E3,4.25E1,1E0,3.2E1,2.07E3,9.865E2,4.94275E3,6.435E2,1.44E2,3.7E1,1E0,1.55E1,1.12775E3,4.15E1,1E0,3.05E1,1.5E0,1.175E1,2.05825E3,1E0,9.855E2,5.975E2,4.34525E3,8.475E1,5.5875E2,1.2525E2,1.875E1,1E0,3.6E1,1.75E0,1.375E1,9.25E0,1.1185E3,1E0,4.05E1,2.95E1,1E0,9.5E0,2.04875E3,9.845E2,1E0,5.835E2,1.4E1,4.12375E3,2.215E2,7.775E1,7E0,5.35E1,5.0525E2,1.1225E2,1.3E1,5.25E0,1.35E1,1E0,3.5E1,8.25E0,5.5E0,4.25E0,5E0,7E0,1.1115E3,3.95E1,1E0,2.85E1,1E0,1E0,8.5E0,2.725E1,2.0215E3,9.835E2,1E0,5.815E2,2E0,2E0,1.2E1,3.6125E2,3.7625E3,1.825E1,2.0325E2,5.9E1,1.875E1,9.75E0,4.375E1,5E2,5.25E0,1.09E2,3.25E0,8.75E0,4.25E0,1.25E0,4E0,1.25E1,1E0,7E0,1.25E0,1.25E0,4.25E0,1.25E0,3.75E0,1E0,6E0,1.10825E3,3.25E0,2.75E1,1E0,1E0,7.5E0,1.925E1,8E0,8E0,2.0135E3,9.8225E2,1.25E0,1E0,5.805E2,1E0,1E0,1.75E0,1.025E1,3.585E2,2.75E0,2.985E2,3.464E3,1.25E0,1.7E1,1.97E2,6.25E0,4.9E1,1E1,3E0,1.575E1,3.55E1,8.25E0,4E0,4.96E2,4.25E0,1E0,1.0475E2,4.25E0,7.25E0,1.5E0,1E0,3.25E0,1E0,1.15E1,5.5E0,1.5E0,1E0,3.25E0,2.75E0,1E0,1E0,5E0,4.5E0,1.10375E3,2.55E1,2E0,2.75E0,1.65E1,4E0,4E0,2.5E0,5.5E0,1.325E1,2.00025E3,9.8125E2,1E0,1E0,5.795E2,1.5E0,8.75E0,3.56E2,2.5E0,1.25E0,1.5E0,2.615E2,3.7E1,2.3725E2,3.22675E3,1.55E1,1.5E0,5E0,1.92E2,2E0,4.25E0,1.85E1,3.05E1,2.5E0,7.5E0,1.75E0,1.4E1,4.75E0,3.075E1,1E0,3E0,1.45E1,4.815E2,9.55E1,9.25E0,1E0,3.25E0,2.25E0,1E0,1.5E0,3E0,2.5E0,1.10125E3,2.45E1,1E0,1E0,1E0,1.5E0,1.5E1,1.25E0,2.75E0,1.25E0,1.25E0,7E0,6.25E0,1.70375E3,2.965E2,9.8025E2,1E0,5.78E2,1.5E0,1.75E0,7E0,1E0,3.55E2,1.25E0,1.25E0,2.605E2,1E0,3.25E0,3.375E1,1.25E0,2.36E2,3.15425E3,7.25E1,1.425E1,1.25E0,4E0,1E0,1.8975E2,2.25E0,1E0,1E0,1.75E1,1E0,2.325E1,7.25E0,6.5E0,1E0,1.3E1,1E0,2.775E1,3E0,1.125E1,3.25E0,1.75E0,4.7975E2,9.375E1,1.75E0,4E0,5.25E0,1.25E0,1E0,1.09575E3,5.5E0,1E0,2.35E1,1.75E0,1.325E1,1.5E0,1.25E0,3.25E0,3.75E0,1.25E0,5E0,9.925E1,1.6045E3,8.25E0,2.8825E2],"tree_param":{"num_deleted":"0","num_feature":"650","num_nodes":"293","size_leaf_vector":"0"}},{"base_weights":[-1.3510716E-4,-3.2984772E-1,1.2585458E0,-6.4583796E-1,1.2279248E0,-1.4878458E0,1.3085474E0,-8.086317E-1,1.1737407E0,-1.5702153E0,1.3754739E0,-1.5761261E0,5.9336585E-1,-1.1069732E0,1.3458769E0,-1.7152051E0,-6.3893896E-1,1.332508E0,-8.892853E-1,-1.6259178E0,7.71084E-1,-3.7325895E-1,1.4091069E0,-1.647104E0,4.3318707E-2,-1.2536237E0,1.0975963E0,-1.6123773E0,1.3631661E0,-1.7228215E0,-8.559326E-2,-7.228274E-1,1.0409508E0,-6.091253E-2,1.4389787E0,-1.0825176E0,1.4052429E0,-1.6510615E0,-0E0,-5.7267666E-1,1.2584367E0,-6.57586E-1,1.4339603E0,-9.0860285E-2,-1.321739E0,-1.3943932E0,1.3755664E0,-1.7256311E0,2.2243652E-1,1.3267868E0,-1.2810539E0,-1.6713903E0,-5.902981E-1,-7.775575E-1,1.1826609E0,1.1871732E0,-3.1839246E-1,-1.4781107E0,1.4624999E0,-1.2855638E0,5.6455517E-1,-1.6776688E0,-1.534752E-1,1.1148558E0,-7.233495E-1,9.0802586E-1,-1.1065238E0,-3.2121167E-1,1.4568423E0,-2.7507454E-1,-1.4229535E0,-1.8954621E-1,-1.5549175E0,-1.4887963E-1,1.3954242E0,-1.728417E0,2.0373675E-1,-1.6901002E0,2.2194773E-1,-1.6358517E0,-4.8770225E-1,1.0959886E0,-1.0123739E0,1.2382776E0,-1.1630199E0,1.3793437E0,2.0717137E-1,-5.837952E-1,1.4993217E0,1.507028E0,8.907236E-2,-1.4393865E0,9.403298E-1,1.4138556E0,-1.0050472E0,-1.7057276E0,-6.970299E-1,-1.4107573E0,-4.2908677E-1,1.1724569E0,1.8120195E-1,1.9338031E-1,-1.2674148E0,-1.5267756E0,2.4785116E-1,-9.72157E-1,1.471226E0,-9.941698E-1,4.8099822E-1,-1.4823444E0,-1.4421226E-1,2.6972932E-1,-9.9378E-1,-1.3741778E0,1.4042023E0,-1.7313899E0,-2.0659693E-1,-1.7009137E0,4.565469E-1,1.4392489E0,-7.1329457E-1,-1.6604458E0,1.4753911E0,-5.357164E-1,1.6970558E0,9.766163E-1,-1.2359475E0,-8.295958E-1,1.3048208E0,-8.2518494E-1,1.3365563E0,-5.7308936E-1,1.5327296E0,1.4826195E0,-6.966741E-1,-1.5465746E0,6.403628E-1,-5.0920784E-1,-1.7216927E0,-1.2988963E0,-1.9977076E-1,-4.418996E-1,-1.5143567E0,-1.3078446E0,6.353285E-1,6.3328797E-1,-1.3782175E0,1.4840821E0,-7.2968215E-1,-5.404175E-1,-1.541778E0,6.32455E-1,-1.3274231E0,-1.4251778E0,-3.657011E-1,1.420526E0,-1.1983461E-1,-1.7332404E0,-0E0,-1.7103921E0,2.3846725E-1,1.094912E0,-3.0492654E-1,-1.1009271E0,-6.46466E-2,-1.6807115E0,1.1907748E0,-5.9532696E-1,9.2757344E-1,-1.2912203E0,1.7866404E0,-1.3873577E0,1.04377136E-1,2.442873E-1,-1.0838647E0,1.4486591E0,4.86957E-1,1.0509243E0,-9.6594524E-1,-1.4786593E0,1.11962E0,-5.435367E-1,1.5586904E0,-1.532643E0,-2.9301104E-1,2.2576973E-1,-1.6310726E0,-4.9511364E-1,1.2101426E0,-1.1885405E0,6.649421E-1,9.83447E-1,-8.704108E-1,-3.4452868E-1,-1.6198392E0,-1.0247611E0,1.4948268E0,-1.3734145E0,-3.5310763E-1,-1.0944867E0,8.912158E-1,-1.0226595E0,1.2632099E-1,-8.704369E-1,1.4304756E0,1.4851633E0,-6.863476E-1,-1.735367E0,-2.2555165E-1,-1.7164042E0,1.912524E-1,8.5824865E-1,-5.5846274E-1,-1.7007535E0,1.1223943E0,-7.229192E-1,1.1701329E-1,1.017372E0,-1.2786559E0,1.8910365E0,-4.1380352E-1,-1.328702E-1,-1.5001677E0,-1.277755E0,-1.7328417E-1,-7.443282E-1,1.4956639E0,6.985497E-1,-1.3898964E0,1.0506532E0,-1.1220195E0,1.1804479E0,-1.6283858E0,-8.922982E-1,1.5805206E0,-1.5286664E0,3.225916E-1,-1.6893156E0,-1.9170871E-1,-1.3077546E0,-1.3278171E-1,2.2423008E-2,1.1734456E0,-1.361475E-1,-1.2417419E0,-6.9195044E-1,1.5069019E0,-1.2241671E0,2.6030934E-1,1.0264102E0,-2.8519157E-1,-7.296586E-1,1.0226595E0,1.0355458E0,-1.3124243E0,1.4391681E0,-7.849113E-1,-1.5924785E0,-2.9332612E-2],"categories":[],"categories_nodes":[],"categories_segments":[],"categories_sizes":[],"default_left":[1,1,0,1,0,1,0,0,1,1,0,1,0,1,0,1,1,0,1,1,0,1,0,0,0,0,0,0,0,1,1,0,0,0,0,1,0,1,0,0,0,0,0,0,0,0,0,1,0,0,0,1,0,0,1,1,1,0,1,1,1,1,0,0,0,1,0,0,0,0,1,0,0,1,0,1,0,1,0,1,1,0,0,0,0,0,0,1,0,0,0,1,0,0,0,0,0,0,0,0,0,0,0,0,0,0,1,0,0,0,0,1,0,0,1,1,0,1,0,0,1,1,0,1,0,0,1,0,1,0,0,0,0,0,0,0,0,0,0,0,1,0,0,0,0,0,0,0,0,0,0,0,0,0,0,0,0,1,0,1,0,0,0,0,0,1,0,1,1,0,1,0,0,0,1,0,1,0,0,0,0,0,0,0,0,0,1,0,0,0,0,0,0,0,0,0,0,0,0,0,0,0,0,0,1,0,0,0,0,0,0,0,0,0,0,0,0,0,0,0,0,0,0,0,0,0,0,0,0,0,0,0,0,0,0,0,0,0,0,0,0,0,0,0,0,0,0,0,0,0,0,0,0,0,0,0,0,0,0],"id":1,"left_children":[1,3,5,7,9,11,13,15,17,19,21,23,-1,25,27,29,31,33,35,37,-1,39,41,-1,-1,43,-1,-1,45,47,49,51,53,55,57,59,-1,61,-1,63,-1,65,67,-1,69,71,73,75,-1,-1,-1,77,79,81,83,85,87,-1,89,91,93,95,-1,-1,97,99,101,103,105,107,109,-1,-1,111,113,115,-1,117,119,121,123,-1,125,127,-1,-1,-1,129,-1,131,133,135,-1,-1,-1,137,-1,-1,139,-1,-1,-1,141,-1,143,145,147,-1,-1,149,-1,151,153,-1,155,157,-1,159,161,-1,163,165,-1,167,169,-1,171,173,175,177,-1,179,181,-1,183,185,-1,-1,-1,-1,187,189,-1,-1,191,-1,193,195,197,-1,-1,199,-1,-1,201,203,205,207,-1,209,211,-1,-1,-1,-1,213,-1,215,217,-1,219,221,-1,-1,223,225,227,-1,229,-1,-1,231,233,-1,235,-1,237,239,-1,-1,-1,241,-1,-1,-1,243,245,-1,247,-1,249,-1,251,253,255,-1,257,-1,-1,-1,-1,-1,-1,-1,-1,-1,-1,-1,-1,-1,-1,-1,-1,-1,-1,-1,-1,-1,-1,-1,-1,-1,-1,-1,-1,-1,-1,-1,-1,-1,-1,-1,-1,-1,-1,-1,-1,-1,-1,-1,-1,-1,-1,-1,-1,-1,-1,-1,-1],"loss_changes":[4.1175703E3,3.8709192E3,2.8476953E2,1.9373215E3,5.4971155E2,7.787216E0,1.839248E2,9.220603E2,1.7715082E2,9.978241E0,7.465259E1,4.2150955E0,0E0,1.1508198E1,1.04126465E2,1.1588623E1,7.1329663E2,7.41546E1,1.8808426E1,2.684494E0,0E0,8.716423E0,6.4468506E1,0E0,0E0,2.2442398E0,0E0,0E0,6.968628E1,5.5273438E0,1.0903337E1,6.0448926E2,6.299829E1,1.2074887E1,3.3987793E1,1.2941322E1,0E0,2.3191986E0,0E0,6.548763E0,0E0,1.1816045E1,4.956079E1,0E0,2.5882072E0,1.517252E0,5.9949463E1,5.4035645E0,0E0,0E0,0E0,2.1271362E1,4.5268152E2,9.036512E0,3.0646759E1,9.263706E-1,1.581226E1,0E0,2.8036499E1,1.2591785E1,7.6910963E0,5.565033E-1,0E0,0E0,3.711156E0,5.5191994E-1,2.8394556E0,1.1732598E1,4.359424E1,2.5005367E0,1.7157402E0,0E0,0E0,9.56291E0,4.9293945E1,3.8886719E0,0E0,1.4338013E1,8.604387E0,3.132251E1,4.0489178E2,0E0,8.558311E0,3.1241608E1,0E0,0E0,0E0,1.396054E1,0E0,2.4728577E1,1.80359E1,7.9224854E0,0E0,0E0,0E0,2.8816223E-1,0E0,0E0,3.0076609E0,0E0,0E0,0E0,1.608036E0,0E0,8.126865E0,5.8967147E0,3.504077E1,0E0,0E0,5.1994324E-1,0E0,1.1475956E1,1.8957777E0,0E0,4.849707E1,3.0009766E0,0E0,1.109729E1,2.1405072E0,0E0,1.043391E0,2.3660522E1,0E0,3.293202E2,2.4541351E1,0E0,3.2502403E0,2.297505E0,2.432022E1,7.6853523E0,0E0,1.1117384E1,2.461438E1,0E0,3.1311994E0,4.8408127E0,0E0,0E0,0E0,0E0,6.488907E0,4.0829287E0,0E0,0E0,6.288067E0,0E0,1.0567799E0,3.37041E1,1.3670683E0,0E0,0E0,7.964052E0,0E0,0E0,1.7380464E0,4.5055664E1,2.0575615E1,2.6083984E0,0E0,6.9456787E0,2.3096986E0,0E0,0E0,0E0,0E0,2.2842163E1,0E0,3.2930005E2,3.0606895E1,0E0,1.9402985E1,1.7563362E0,0E0,0E0,8.737645E-1,1.9709808E1,1.4204698E1,0E0,8.737761E0,0E0,0E0,1.349289E1,2.4725098E1,0E0,6.8761663E0,0E0,2.076065E0,3.4786968E0,0E0,0E0,0E0,1.5963182E0,0E0,0E0,0E0,9.2665386E-1,3.2433594E1,0E0,3.6134539E0,0E0,2.543582E0,0E0,3.6126077E0,8.884301E0,3.7990234E1,0E0,9.824585E0,0E0,0E0,0E0,0E0,0E0,0E0,0E0,0E0,0E0,0E0,0E0,0E0,0E0,0E0,0E0,0E0,0E0,0E0,0E0,0E0,0E0,0E0,0E0,0E0,0E0,0E0,0E0,0E0,0E0,0E0,0E0,0E0,0E0,0E0,0E0,0E0,0E0,0E0,0E0,0E0,0E0,0E0,0E0,0E0,0E0,0E0,0E0,0E0,0E0,0E0,0E0,0E0],"parents":[2147483647,0,0,1,1,2,2,3,3,4,4,5,5,6,6,7,7,8,8,9,9,10,10,11,11,13,13,14,14,15,15,16,16,17,17,18,18,19,19,21,21,22,22,25,25,28,28,29,29,30,30,31,31,32,32,33,33,34,34,35,35,37,37,39,39,41,41,42,42,44,44,45,45,46,46,47,47,51,51,52,52,53,53,54,54,55,55,56,56,58,58,59,59,60,60,61,61,64,64,65,65,66,66,67,67,68,68,69,69,70,70,73,73,74,74,75,75,77,77,78,78,79,79,80,80,82,82,83,83,87,87,89,89,90,90,91,91,95,95,98,98,102,102,104,104,105,105,106,106,109,109,111,111,112,112,114,114,115,115,117,117,118,118,120,120,121,121,123,123,124,124,126,126,127,127,128,128,129,129,131,131,132,132,134,134,135,135,140,140,141,141,144,144,146,146,147,147,148,148,151,151,154,154,155,155,156,156,157,157,159,159,160,160,165,165,167,167,168,168,170,170,171,171,174,174,175,175,176,176,178,178,181,181,182,182,184,184,186,186,187,187,191,191,195,195,196,196,198,198,200,200,202,202,203,203,204,204,206,206],"right_children":[2,4,6,8,10,12,14,16,18,20,22,24,-1,26,28,30,32,34,36,38,-1,40,42,-1,-1,44,-1,-1,46,48,50,52,54,56,58,60,-1,62,-1,64,-1,66,68,-1,70,72,74,76,-1,-1,-1,78,80,82,84,86,88,-1,90,92,94,96,-1,-1,98,100,102,104,106,108,110,-1,-1,112,114,116,-1,118,120,122,124,-1,126,128,-1,-1,-1,130,-1,132,134,136,-1,-1,-1,138,-1,-1,140,-1,-1,-1,142,-1,144,146,148,-1,-1,150,-1,152,154,-1,156,158,-1,160,162,-1,164,166,-1,168,170,-1,172,174,176,178,-1,180,182,-1,184,186,-1,-1,-1,-1,188,190,-1,-1,192,-1,194,196,198,-1,-1,200,-1,-1,202,204,206,208,-1,210,212,-1,-1,-1,-1,214,-1,216,218,-1,220,222,-1,-1,224,226,228,-1,230,-1,-1,232,234,-1,236,-1,238,240,-1,-1,-1,242,-1,-1,-1,244,246,-1,248,-1,250,-1,252,254,256,-1,258,-1,-1,-1,-1,-1,-1,-1,-1,-1,-1,-1,-1,-1,-1,-1,-1,-1,-1,-1,-1,-1,-1,-1,-1,-1,-1,-1,-1,-1,-1,-1,-1,-1,-1,-1,-1,-1,-1,-1,-1,-1,-1,-1,-1,-1,-1,-1,-1,-1,-1,-1,-1],"split_conditions":[9.338876E-2,8.967504E-2,4.7192758E-1,1.1071466E-1,3.4883627E-1,1.1232589E-1,1.7314425E0,1.0016286E0,2.2278768E-1,1.076052E-1,8.860081E-1,1.5805618E-1,8.900488E-2,1.5059903E-1,1.1747529E-1,7.599288E-2,1.0344377E-1,2.7202636E-1,2.5393522E-1,2.040199E-1,1.15662605E-1,9.5296174E-2,3.051623E-1,-2.4706562E-1,6.4978064E-3,3.9296687E-1,1.6463944E-1,-2.418566E-1,9.368732E-1,2.0346022E-1,1.0840109E-1,6.7467526E-2,3.813486E-1,2.3342656E-1,1.3084464E-1,1.0423641E-1,2.1078645E-1,2.0114442E-2,-0E0,5.1145375E-1,1.8876551E-1,1.606271E-1,3.472867E-1,-1.36290435E-2,2.7126342E-1,2.090204E-1,4.996358E-1,2.580617E-1,3.336548E-2,1.9901802E-1,-1.9215809E-1,1.3086496E-1,9.6655846E-2,3.6712044E-1,2.2587615E-1,1.486845E-1,2.4938923E-1,-2.2171661E-1,1.853367E-1,1.5489575E-1,2.8060853E-1,6.2542126E-2,-2.302128E-2,1.6722837E-1,1.8535425E-1,1.2638347E-1,2.785099E-1,8.0551475E-1,2.436868E-1,1.5841372E-1,1.2441E-1,-2.8431933E-2,-2.3323762E-1,1.2945971E-1,3.0742043E-1,1.5935808E-1,3.0560514E-2,1.5085106E-1,1.62837E-1,1.4671437E-1,1.6287269E-1,1.643983E-1,2.1629627E-1,5.1889753E-1,-1.7445299E-1,2.0690157E-1,3.1075707E-2,2.2787637E-1,2.2489826E-1,3.7148523E-1,4.8785412E-1,1.6252825E-1,1.4104947E-1,2.1207835E-1,-1.5075709E-1,2.4885112E-1,-1.0455449E-1,-2.1161361E-1,8.8578725E-1,1.7586854E-1,2.7180294E-2,2.9007047E-2,1.6026905E-1,-2.2901635E-1,2.4504283E-1,1.2448558E-1,2.4932453E-1,-1.4912547E-1,7.214974E-2,3.5036123E-1,-2.163184E-2,2.38635E-1,5.943249E-1,-2.0612668E-1,3.851503E-1,5.199504E-2,-3.098954E-2,1.5242654E-1,1.8768951E-1,2.1588735E-1,1.0365367E-1,1.4523107E-1,2.2130868E-1,1.8560198E-1,3.1813458E-1,1.4649245E-1,1.3901451E-1,1.7425072E-1,1.1404335E-1,3.2734805E-1,2.0048346E-1,4.7013795E-1,3.50241E-1,2.2239293E-1,8.069507E-1,4.53669E-1,9.605443E-2,-7.638118E-2,-2.582539E-1,-1.9483446E-1,9.882748E-2,5.932584E-1,-2.2715352E-1,-1.9617671E-1,1.9333526E-1,9.49932E-2,9.322642E-2,3.477968E-1,1.0144458E0,-8.106263E-2,-2.312667E-1,5.381578E-1,-1.9911347E-1,-2.1377668E-1,8.335561E-1,3.2976884E-1,7.871035E-1,1.6015321E-1,-0E0,1.5921366E-1,2.0791055E-1,1.6423681E-1,-4.5738984E-2,-1.6513908E-1,-9.69699E-3,1.9462785E-1,1.7861623E-1,1.6129845E-1,2.9652637E-1,-1.9368306E-1,2.4865851E-1,7.445663E-1,1.5656572E-2,3.6643095E-2,1.0854644E-1,2.6125035E-1,2.1419215E-1,1.5763865E-1,6.7873335E-1,-2.217989E-1,1.67943E-1,2.589708E-1,3.673514E-1,-2.2989646E-1,1.1312747E0,3.386546E-2,2.5169772E-1,5.064749E-1,1.815214E-1,-1.7828107E-1,9.974132E-2,1.508357E-1,-1.3056162E-1,-5.1679302E-2,-2.4297589E-1,1.1080034E-1,4.2468363E-1,-2.0601219E-1,7.607943E-1,-1.64173E-1,4.2132902E-1,-1.5339893E-1,2.8070417E-1,5.772138E-1,7.033276E-1,2.227745E-1,9.8650396E-1,-2.6030505E-1,-3.3832747E-2,-2.5746065E-1,2.868786E-2,1.287373E-1,-8.376941E-2,-2.5511304E-1,1.6835916E-1,-1.0843789E-1,1.7551994E-2,1.526058E-1,-1.9179839E-1,2.836555E-1,-6.207053E-2,-1.993053E-2,-2.2502516E-1,-1.9166327E-1,-2.5992626E-2,-1.1164924E-1,2.2434959E-1,1.04782455E-1,-2.0848447E-1,1.5759799E-1,-1.6830294E-1,1.7706719E-1,-2.4425788E-1,-1.3384473E-1,2.370781E-1,-2.2929996E-1,4.8388742E-2,-2.5339735E-1,-2.8756307E-2,-1.961632E-1,-1.9917257E-2,3.3634515E-3,1.7601684E-1,-2.0422125E-2,-1.862613E-1,-1.0379257E-1,2.2603528E-1,-1.8362507E-1,3.9046403E-2,1.5396154E-1,-4.2778738E-2,-1.094488E-1,1.5339893E-1,1.5533188E-1,-1.9686365E-1,2.1587522E-1,-1.177367E-1,-2.3887178E-1,-4.399892E-3],"split_indices":[239,340,213,444,213,479,398,213,465,297,140,523,0,334,234,444,70,255,562,131,0,290,407,0,0,191,0,0,277,321,523,592,624,110,625,592,0,31,0,645,0,375,235,0,231,334,23,503,0,0,0,320,234,31,447,321,530,0,53,460,359,70,0,0,353,234,70,419,23,231,63,0,0,234,404,520,0,128,70,415,177,0,444,180,0,0,0,215,0,474,89,523,0,0,0,539,0,0,347,0,0,0,234,0,329,234,615,0,0,616,0,547,639,0,166,375,0,204,321,0,334,620,0,31,180,0,321,460,234,368,0,25,550,0,23,586,0,0,0,0,444,1,0,0,375,0,340,46,63,0,0,297,0,0,4,378,244,647,0,560,575,0,0,0,0,57,0,375,23,0,533,88,0,0,234,140,338,0,12,0,0,592,160,0,452,0,403,168,0,0,0,234,0,0,0,431,145,0,278,0,23,0,23,4,66,0,547,0,0,0,0,0,0,0,0,0,0,0,0,0,0,0,0,0,0,0,0,0,0,0,0,0,0,0,0,0,0,0,0,0,0,0,0,0,0,0,0,0,0,0,0,0,0,0,0,0,0,0,0],"split_type":[0,0,0,0,0,0,0,0,0,0,0,0,0,0,0,0,0,0,0,0,0,0,0,0,0,0,0,0,0,0,0,0,0,0,0,0,0,0,0,0,0,0,0,0,0,0,0,0,0,0,0,0,0,0,0,0,0,0,0,0,0,0,0,0,0,0,0,0,0,0,0,0,0,0,0,0,0,0,0,0,0,0,0,0,0,0,0,0,0,0,0,0,0,0,0,0,0,0,0,0,0,0,0,0,0,0,0,0,0,0,0,0,0,0,0,0,0,0,0,0,0,0,0,0,0,0,0,0,0,0,0,0,0,0,0,0,0,0,0,0,0,0,0,0,0,0,0,0,0,0,0,0,0,0,0,0,0,0,0,0,0,0,0,0,0,0,0,0,0,0,0,0,0,0,0,0,0,0,0,0,0,0,0,0,0,0,0,0,0,0,0,0,0,0,0,0,0,0,0,0,0,0,0,0,0,0,0,0,0,0,0,0,0,0,0,0,0,0,0,0,0,0,0,0,0,0,0,0,0,0,0,0,0,0,0,0,0,0,0,0,0,0,0,0,0,0,0,0,0,0,0,0,0,0,0,0,0,0,0],"sum_hessian":[9.919785E3,7.861259E3,2.0585261E3,6.5360273E3,1.3252314E3,3.6293854E1,2.0222322E3,5.9997944E3,5.3623303E2,6.589763E1,1.2593339E3,3.504981E1,1.2440448E0,3.0339895E1,1.9918923E3,9.4454E2,5.0552544E3,4.982431E2,3.7989902E1,6.466473E1,1.2329054E0,2.3572882E1,1.235761E3,3.3561764E1,1.4880446E0,2.885198E1,1.4879153E0,1.1037733E1,1.9808546E3,9.40089E2,4.4509635E0,4.8153604E3,2.3989426E2,3.5398457E1,4.6284464E2,3.5526295E1,2.4636075E0,6.3664722E1,1E0,2.1584019E1,1.9888617E0,1.4381805E1,1.2213792E3,1.7257868E0,2.7126194E1,8.368734E0,1.9724858E3,9.388459E2,1.243131E0,1.9900087E0,2.4609547E0,5.888835E2,4.226477E3,1.7018307E1,2.2287596E2,5.436294E0,2.9962162E1,3.2075295E0,4.5963712E2,3.1822767E1,3.703529E0,6.2435204E1,1.2295203E0,1.2446609E0,2.033936E1,2.9770665E0,1.1404738E1,1.5550284E1,1.2058289E3,2.719673E0,2.440652E1,1.240289E0,7.1284456E0,2.5280205E1,1.9472057E3,9.3759625E2,1.2496529E0,5.8322736E2,5.6560993E0,3.7633234E2,3.8501445E3,1.4869384E0,1.5531368E1,2.1817508E2,4.7008805E0,4.204362E0,1.2319324E0,2.673713E1,3.225033E0,4.4510892E2,1.4528209E1,3.0096277E1,1.72649E0,2.467571E0,1.2359579E0,5.9979618E1,2.4555852E0,4.9595256E0,1.5379833E1,1.7333281E0,1.2437384E0,1.2338696E0,1.0170869E1,4.4467807E0,1.1103504E1,6.7064705E0,1.1991224E3,1.2325197E0,1.4871533E0,2.317112E1,1.235401E0,1.7359924E1,7.9202805E0,5.6606126E0,1.941545E3,9.3563074E2,1.9654635E0,5.8051074E2,2.7166145E0,2.223331E0,3.4327683E0,3.7384344E2,2.4888823E0,3.7680884E3,8.2056046E1,1.2290548E0,1.4302313E1,6.444395E0,2.1173068E2,2.4258154E1,2.4789748E0,5.172649E0,4.3993625E2,4.91839E0,9.609819E0,2.8864971E1,1.2313055E0,1.2229015E0,5.8756718E1,2.2356515E0,1.3144181E1,2.9842277E0,7.1866417E0,1.7404464E0,9.363057E0,1.2408639E0,5.4656067E0,1.1924824E3,6.639977E0,1.9743065E0,2.1196814E1,1.4639248E1,2.7206757E0,3.9429486E0,3.9773319E0,1.921037E3,2.0508087E1,9.3463074E2,1E0,5.7780493E2,2.705843E0,1.2395651E0,1.4770492E0,1.7122573E0,1.720511E0,3.7161264E2,2.2307987E0,3.621165E3,1.4692342E2,1.9979191E0,8.005813E1,1.2819108E1,1.4832051E0,1.2412671E0,5.2031283E0,1.7940698E2,3.2323692E1,1.2417371E0,2.3016418E1,3.4522235E0,1.7204254E0,5.1866508E0,4.347496E2,2.2185209E0,7.3912983E0,1.2374566E0,2.7627514E1,1.1404126E1,1.7400556E0,1.7380086E0,1.2462189E0,7.8865895E0,1.476468E0,1.4951338E0,3.9704728E0,4.682807E0,1.1877997E3,1.4736804E0,5.166297E0,1.4867975E0,1.3152451E1,1.2413595E0,2.7359724E0,7.9328623E0,1.9131041E3,4.9271903E0,1.5580897E1,9.331636E2,1.4672158E0,5.76081E2,1.7238908E0,1.4788113E0,1.2270317E0,3.69365E2,2.247659E0,3.071069E3,5.500958E2,1.4169498E2,5.228446E0,7.656619E1,3.4919338E0,1.2373345E0,1.1581774E1,3.9572732E0,1.2458551E0,3.4534407E0,1.7595355E2,2.9612993E1,2.7107005E0,1.2416468E0,2.177477E1,1.9691925E0,3.2174582E0,3.4859722E0,4.3126364E2,1.9646311E0,5.426667E0,2.6386162E1,1.241352E0,2.7121103E0,8.692016E0,1.4863844E0,6.400205E0,1.238436E0,3.444371E0,6.213644E0,1.1815859E3,1.7233982E0,3.4428985E0,1.1911113E1,1.2413375E0,1.4946129E0,1.2413595E0,1.2405043E0,6.692358E0,1.905976E3,7.128141E0,5.950449E0,9.630448E0],"tree_param":{"num_deleted":"0","num_feature":"650","num_nodes":"259","size_leaf_vector":"0"}},{"base_weights":[-2.9030087E-4,-2.9371414E-1,1.0946126E0,-5.5008E-1,1.1993299E0,-1.3667654E0,1.1454262E0,-7.251057E-1,7.5657946E-1,-1.4468868E0,1.2875341E0,-1.4386294E0,5.466061E-1,-9.848231E-1,1.1791481E0,-1.4575042E0,-5.495382E-1,-4.7614563E-1,1.0524648E0,-1.4932065E0,-4.446578E-2,-2.9331374E-1,1.3114665E0,-1.5227451E0,-3.1708315E-1,-1.1145717E0,1.0129347E0,-2.0881502E-1,1.2103635E0,-1.4811096E0,1.3527112E0,-1.4853728E0,-4.1940835E-1,-6.696973E-1,8.818831E-1,1.1825701E-2,1.219191E0,-1.5162508E0,-4.4707036E-1,1.0919502E0,-5.195292E-1,8.0986136E-1,1.3806633E0,-1.5445637E0,-4.7525254E-1,-1.0296959E0,7.417747E-1,6.423352E-1,-1.2108121E0,-1.4621764E0,2.5107178E-1,-1.2072035E0,1.2221125E0,-1.514319E0,3.8530555E-1,-5.0117624E-1,1.6682265E0,-1.5471919E0,-5.4296863E-1,-1.4549942E0,-3.0256888E-1,-8.7425745E-1,6.8082905E-1,1.3287292E0,-4.428583E-1,-1.409506E-1,1.560036E0,-1.0972997E0,1.2457074E0,-8.450126E-1,1.2979925E-1,-8.237169E-1,9.419629E-1,1.3912632E0,-1.2760621E0,-1.2579391E0,-7.195744E-2,5.021698E-1,-1.3361179E0,-1.7391273E-1,-1.3362683E0,-5.799096E-1,1.2368767E0,-1.5241399E0,1.1891615E0,-1.3545281E0,9.1839236E-1,-1.5561574E0,1.2725837E0,1.2752396E0,-7.7091676E-1,-1.5174482E0,-8.993139E-2,-3.742687E-1,1.3316559E0,-9.809283E-1,7.5220144E-1,1.4282713E0,-6.108726E-1,1.6058528E0,-1.3788755E-1,-1.0800197E0,1.001581E0,1.5823932E0,-2.758232E-1,-1.5035203E0,5.1537722E-2,4.8813444E-1,1.3275068E0,-1.0324136E0,2.874223E-1,-1.0615411E0,6.679318E-1,-1.4775609E0,8.74913E-3,-1.1753007E0,1.0200896E0,1.4022944E0,-1.1719214E0,-3.0140224E-1,-1.3285968E0,6.4470553E-1,-7.607881E-1,1.064029E0,-8.140837E-1,-3.2092345E-1,1.2537037E0,-1.5354573E0,3.8487887E-1,1.4388313E0,2.924753E-1,1.3915038E0,-1.3526111E0,-1.5678617E0,1.9411772E-1,1.5134968E0,3.5756806E-1,1.1297503E0,-1.0325444E0,-1.5571314E0,7.669789E-2,1.289095E0,-5.0893426E-1,-1.5118594E0,-2.9066044E-1,-1.308656E0,1.3877834E0,-1.0736433E0,7.94277E-1,-1.0059074E0,1.328749E0,1.1398257E-1,1.5685687E0,-1.1527056E0,9.4755507E-1,5.18756E-1,1.6771073E0,-5.0069106E-1,5.737539E-1,1.5173185E0,2.2810781E-1,-3.75797E-1,1.354532E0,-1.326856E-1,-1.1561159E0,1.007306E0,2.5763914E-1,-1.221906E0,7.5033206E-1,-2.7580142E-1,-1.6728201E0,1.0850643E0,-1.4945196E0,-5.6948435E-1,1.4141525E0,-1.5523351E0,-4.7542654E-2,-1.3560047E0,-4.1079608E-1,-7.686499E-1,7.8627443E-1,-1.2412775E0,6.943815E-2,3.778158E-1,-1.0554273E0,7.0603274E-2,-1.500244E0,3.415585E-1,1.2851562E0,-1.5419521E0,1.3134413E0,-1.1393394E0,1.1709183E0,1.6417824E0,-6.170883E-1,-1.5749676E0,8.154099E-1,8.95452E-1,-9.1109437E-1,2.9670992E-1,1.3512098E0,1.310696E0,-1.1799946E0,-1.5759118E0,7.9152375E-1,1.3794081E0,-3.866263E-1,1.5601104E0,2.934383E-1,1.3090485E0,-8.376428E-1,-1.5515417E0,-3.753466E-1,-1.448545E0,-2.0978035E-1,1.4606287E0,-7.309404E-1,-1.1451373E0,1.198294E0,-5.8066136E-1,1.2799261E0,1.6851205E0,-6.798606E-2,-1.321195E0,-2.809055E-1,-6.6204613E-1,9.5521337E-1,-1.2583532E0,1.071174E0,-1.0343097E0,4.8488522E-1,-1.2626365E0,6.894814E-1,1.3813545E0,-1.2205376E-1,-1.7346628E-1,5.738842E-1,1.0616667E0,-2.230297E-3,1.1843655E0,-7.7648145E-1,8.7108713E-1,-1.0751532E0,1.4249717E0,-5.669191E-1,-1.3861885E0,-4.1079608E-1,9.654118E-1,-2.7372032E-1,1.4809652E-1,-1.1975574E0,-1.3784221E0,8.073005E-1,5.3848267E-1,-1.2806606E0,-7.3167884E-1,1.3005272E0,-1.5519361E0,2.9162952E-1,1.3994989E0,2.442813E-1,1.9251989E0,1.0107483E-1,-1.5804138E0,4.2437866E-1,-1.3321626E0,5.8939403E-1,-1.5927497E0,9.0948975E-1,1.05040945E-1,1.1965193E0,1.2121754E0,-8.2386166E-1,1.2119797E0,-1.1415986E0,-1.5667058E0,-3.9375687E-1,1.0495969E0,-8.25693E-1,-1.477465E0,6.029232E-1,-1.3547516E0,-1.1870888E-1,1.5116605E0,-1.0736679E0,3.8271582E-1,-1.2092271E0,-1.2042034E0,1.4197154E0,-7.731282E-1,1.3319709E0,-2.129889E-1,1.2693353E0,-1.107337E0,1.3904269E0,-1.3881608E0,-2.7849246E-3,6.68699E-1,-1.330772E0,-3.0233115E-1,1.1667196E0,1.3999884E0,-6.535997E-1,-1.4577867E0,4.3122065E-1,1.2576219E0,-1.3448645E0,-1.6067058E0,-7.659051E-2,-1.3384707E0,-2.4168842E-1,1.4331491E0,-9.015064E-1,-1.4435475E0,2.865313E-1,-1.4178569E0,-4.3288615E-1,-8.239093E-2,1.0471313E0,-1.0026752E0,9.072628E-1,-1.5690949E0,-7.01069E-1,-5.807796E-1,1.2719579E0,6.600013E-1,-1.224718E0,-1.8173149E-1,-1.5942333E0,-2.1210676E-2,-2.0428998E0,-1.8217268E0,1.3069485E0],"categories":[],"categories_nodes":[],"categories_segments":[],"categories_sizes":[],"default_left":[1,1,0,1,0,1,0,0,0,1,0,1,0,1,0,1,0,1,0,1,0,0,0,0,0,0,0,0,0,1,0,1,0,1,1,1,0,0,0,0,0,0,1,0,0,0,0,0,1,0,1,0,0,1,0,0,0,1,0,1,1,1,1,0,1,0,0,0,0,1,0,0,0,1,0,0,0,1,0,0,0,0,0,1,1,0,1,1,0,0,0,1,0,0,0,1,0,0,1,0,0,0,0,0,1,0,0,0,0,0,0,0,0,0,0,0,1,0,0,0,1,0,0,0,0,1,0,1,0,0,0,1,0,1,0,0,0,1,0,1,0,1,0,1,0,0,1,1,0,0,0,0,0,0,0,0,0,1,0,0,0,0,1,0,0,0,0,0,1,0,0,1,0,0,1,0,0,1,0,0,1,0,0,0,0,0,0,1,0,1,0,0,1,1,0,1,0,0,0,0,0,0,1,1,0,0,0,0,0,0,0,1,0,1,0,1,0,1,0,0,0,0,0,0,0,1,0,0,0,1,1,0,0,1,0,0,0,0,0,1,0,0,0,1,0,1,0,0,1,0,1,0,0,1,0,1,0,0,0,0,0,0,0,0,0,0,0,0,0,0,0,0,0,0,0,0,0,0,0,0,0,0,0,0,0,0,0,0,0,0,0,0,0,0,0,0,0,0,0,0,0,0,0,0,0,0,0,0,0,0,0,0,0,0,0,0,0,0,0,0,0,0,0,0,0,0,0,0,0,0,0,0,0],"id":2,"left_children":[1,3,5,7,9,11,13,15,17,19,21,23,-1,25,27,29,31,33,35,37,-1,39,41,43,45,47,-1,49,51,53,55,57,59,61,63,65,67,-1,-1,-1,69,71,73,-1,-1,-1,-1,-1,75,-1,77,79,81,83,85,-1,-1,87,89,91,93,95,97,99,101,103,-1,105,107,109,111,113,115,117,-1,119,-1,121,-1,-1,-1,123,125,127,129,-1,131,133,-1,135,137,139,141,143,145,147,149,151,153,155,-1,-1,-1,-1,157,-1,-1,159,161,163,-1,-1,165,-1,167,169,171,173,175,-1,177,179,181,-1,183,185,187,189,191,-1,-1,193,-1,195,197,-1,-1,199,201,203,205,207,209,211,213,-1,215,217,219,-1,221,-1,-1,223,-1,-1,-1,225,227,-1,229,231,233,-1,-1,-1,235,-1,237,-1,-1,239,-1,241,243,-1,-1,245,-1,-1,247,-1,-1,-1,249,251,-1,253,255,257,-1,-1,259,261,-1,263,-1,-1,-1,-1,-1,-1,265,267,269,-1,271,-1,-1,-1,273,275,277,279,281,283,285,287,-1,-1,-1,-1,-1,-1,-1,289,291,-1,293,295,297,-1,299,301,303,-1,-1,-1,-1,305,307,-1,309,311,313,315,-1,317,319,-1,321,-1,323,325,327,329,331,-1,-1,-1,-1,-1,-1,-1,-1,-1,-1,-1,-1,-1,-1,-1,-1,-1,-1,-1,-1,-1,-1,-1,-1,-1,-1,-1,-1,-1,-1,-1,-1,-1,-1,-1,-1,-1,-1,-1,-1,-1,-1,-1,-1,-1,-1,-1,-1,-1,-1,-1,-1,-1,-1,-1,-1,-1,-1,-1,-1,-1,-1,-1,-1,-1,-1,-1,-1,-1,-1,-1,-1,-1,-1,-1,-1],"loss_changes":[3.0995884E3,2.913051E3,2.5659766E2,1.4858273E3,2.6219226E2,6.5202484E0,1.4471753E2,7.357124E2,2.8050003E2,2.3012848E0,4.1240723E1,3.3347244E0,0E0,9.342329E0,8.550513E1,7.5434326E1,5.622284E2,3.982859E1,1.07448364E2,1.7198181E-1,0E0,5.870065E0,3.5811646E1,1.2024689E-1,3.8470688E0,5.889221E0,0E0,2.5805769E1,5.614087E1,6.865259E1,6.53529E0,3.2007812E1,4.9069257E2,3.6848305E1,1.1867264E1,2.0689175E1,3.4157837E1,0E0,0E0,0E0,3.3272076E0,2.9132027E1,2.806604E1,0E0,0E0,0E0,0E0,0E0,1.466301E0,0E0,1.387862E1,1.0760117E0,5.1687256E1,3.046582E1,1.9789904E1,0E0,0E0,1.5343384E1,1.6007023E1,3.4925476E1,4.2803833E2,2.0586159E1,1.808111E1,6.11376E0,6.195023E0,1.8957655E1,0E0,3.145094E0,3.208795E1,2.4770727E0,4.5236034E0,5.6543117E0,2.1385605E1,2.7948486E1,0E0,1.4780312E0,0E0,5.7722087E0,0E0,0E0,0E0,7.1216946E0,5.022046E1,2.383252E1,5.794406E-1,0E0,1.8967976E1,1.1107544E1,0E0,4.2414427E-1,1.7494047E1,2.4994202E1,1.1666882E1,3.3209064E2,2.4575378E1,1.8594543E1,9.047538E0,1.9583569E0,7.200508E0,8.0638885E-2,0E0,0E0,0E0,0E0,1.4568152E1,0E0,0E0,1.3854189E1,2.2429565E1,8.519535E-1,0E0,0E0,3.966539E-1,0E0,5.985173E0,1.690094E0,2.093866E1,2.2475586E1,1.8644385E0,0E0,8.6631775E-2,5.987917E0,1.4561418E0,0E0,4.653165E0,9.85115E0,5.3508545E1,2.1816406E1,9.887756E0,0E0,0E0,7.8767643E0,0E0,1.0157837E1,4.220872E0,0E0,0E0,4.2010403E-1,1.1699192E1,1.8172058E1,6.873007E0,8.168497E-1,1.0258819E1,1.0202087E1,3.0481375E2,0E0,2.4352081E1,1.8081352E1,4.6997004E0,0E0,3.180481E0,0E0,0E0,4.8357868E-1,0E0,0E0,0E0,1.4643259E1,1.6030054E1,0E0,1.4614465E1,8.636617E0,1.8742798E1,0E0,0E0,0E0,5.735863E-1,0E0,9.5945454E-1,0E0,0E0,2.233133E1,0E0,5.4918046E0,2.056018E1,0E0,0E0,1.2702179E-1,0E0,0E0,5.0020046E0,0E0,0E0,0E0,2.3263445E0,1.9046911E1,0E0,2.1147654E1,5.7291504E1,1.9996826E1,0E0,0E0,7.602811E-1,5.2260284E0,0E0,6.362671E0,0E0,0E0,0E0,0E0,0E0,0E0,8.370018E0,1.7393005E1,9.05643E-1,0E0,6.9608684E0,0E0,0E0,0E0,9.85275E0,3.434143E0,6.8902645E0,1.3501282E1,3.175124E2,2.0528961E1,3.4888003E0,1.689598E1,0E0,0E0,0E0,0E0,0E0,0E0,0E0,1.3053169E1,2.6041508E0,0E0,1.0727731E1,2.798605E0,1.3191335E1,0E0,2.4265356E0,1.8384277E1,7.491178E0,0E0,0E0,0E0,0E0,2.2139236E1,3.6363804E0,0E0,7.9055405E-1,1.8734253E1,4.69378E0,8.7688446E-2,0E0,1.9327583E0,4.6856475E0,0E0,9.929085E-1,0E0,8.329098E0,1.3195244E1,2.201167E0,1.335837E1,3.854883E1,0E0,0E0,0E0,0E0,0E0,0E0,0E0,0E0,0E0,0E0,0E0,0E0,0E0,0E0,0E0,0E0,0E0,0E0,0E0,0E0,0E0,0E0,0E0,0E0,0E0,0E0,0E0,0E0,0E0,0E0,0E0,0E0,0E0,0E0,0E0,0E0,0E0,0E0,0E0,0E0,0E0,0E0,0E0,0E0,0E0,0E0,0E0,0E0,0E0,0E0,0E0,0E0,0E0,0E0,0E0,0E0,0E0,0E0,0E0,0E0,0E0,0E0,0E0,0E0,0E0,0E0,0E0,0E0,0E0,0E0,0E0,0E0,0E0,0E0,0E0,0E0],"parents":[2147483647,0,0,1,1,2,2,3,3,4,4,5,5,6,6,7,7,8,8,9,9,10,10,11,11,13,13,14,14,15,15,16,16,17,17,18,18,19,19,21,21,22,22,23,23,24,24,25,25,27,27,28,28,29,29,30,30,31,31,32,32,33,33,34,34,35,35,36,36,40,40,41,41,42,42,48,48,50,50,51,51,52,52,53,53,54,54,57,57,58,58,59,59,60,60,61,61,62,62,63,63,64,64,65,65,67,67,68,68,69,69,70,70,71,71,72,72,73,73,75,75,77,77,81,81,82,82,83,83,84,84,86,86,87,87,89,89,90,90,91,91,92,92,93,93,94,94,95,95,96,96,97,97,98,98,99,99,104,104,107,107,108,108,109,109,112,112,114,114,115,115,116,116,117,117,118,118,120,120,121,121,122,122,124,124,125,125,126,126,127,127,128,128,131,131,133,133,134,134,137,137,138,138,139,139,140,140,141,141,142,142,143,143,144,144,146,146,147,147,148,148,150,150,153,153,157,157,158,158,160,160,161,161,162,162,166,166,168,168,171,171,173,173,174,174,177,177,180,180,184,184,185,185,187,187,188,188,189,189,192,192,193,193,195,195,202,202,203,203,204,204,206,206,210,210,211,211,212,212,213,213,214,214,215,215,216,216,217,217,225,225,226,226,228,228,229,229,230,230,232,232,233,233,234,234,239,239,240,240,242,242,243,243,244,244,245,245,247,247,248,248,250,250,252,252,253,253,254,254,255,255,256,256],"right_children":[2,4,6,8,10,12,14,16,18,20,22,24,-1,26,28,30,32,34,36,38,-1,40,42,44,46,48,-1,50,52,54,56,58,60,62,64,66,68,-1,-1,-1,70,72,74,-1,-1,-1,-1,-1,76,-1,78,80,82,84,86,-1,-1,88,90,92,94,96,98,100,102,104,-1,106,108,110,112,114,116,118,-1,120,-1,122,-1,-1,-1,124,126,128,130,-1,132,134,-1,136,138,140,142,144,146,148,150,152,154,156,-1,-1,-1,-1,158,-1,-1,160,162,164,-1,-1,166,-1,168,170,172,174,176,-1,178,180,182,-1,184,186,188,190,192,-1,-1,194,-1,196,198,-1,-1,200,202,204,206,208,210,212,214,-1,216,218,220,-1,222,-1,-1,224,-1,-1,-1,226,228,-1,230,232,234,-1,-1,-1,236,-1,238,-1,-1,240,-1,242,244,-1,-1,246,-1,-1,248,-1,-1,-1,250,252,-1,254,256,258,-1,-1,260,262,-1,264,-1,-1,-1,-1,-1,-1,266,268,270,-1,272,-1,-1,-1,274,276,278,280,282,284,286,288,-1,-1,-1,-1,-1,-1,-1,290,292,-1,294,296,298,-1,300,302,304,-1,-1,-1,-1,306,308,-1,310,312,314,316,-1,318,320,-1,322,-1,324,326,328,330,332,-1,-1,-1,-1,-1,-1,-1,-1,-1,-1,-1,-1,-1,-1,-1,-1,-1,-1,-1,-1,-1,-1,-1,-1,-1,-1,-1,-1,-1,-1,-1,-1,-1,-1,-1,-1,-1,-1,-1,-1,-1,-1,-1,-1,-1,-1,-1,-1,-1,-1,-1,-1,-1,-1,-1,-1,-1,-1,-1,-1,-1,-1,-1,-1,-1,-1,-1,-1,-1,-1,-1,-1,-1,-1,-1,-1],"split_conditions":[9.025204E-2,1.0098703E-1,4.7192758E-1,8.930054E-2,3.4883627E-1,1.1232589E-1,1.7314425E0,2.8577423E-1,3.682106E-1,1.4759865E-1,8.860081E-1,1.5158205E-1,8.199092E-2,1.5059903E-1,1.3572624E-1,7.913302E-2,7.82845E-2,1.0526951E-1,2.7202636E-1,2.2907886E-1,-6.6698673E-3,5.876003E-1,4.2881143E-1,1.5419471E-1,2.6114982E-1,5.064261E-1,1.5194021E-1,1.1541516E-1,9.368732E-1,1.2833786E-1,6.3474104E-2,1.045629E-1,1.1887209E-1,8.4912054E-2,2.405512E-1,2.2637513E-1,8.733339E-1,-2.2743763E-1,-6.706056E-2,1.6379254E-1,2.8824177E-1,4.7950777E-1,4.559664E-1,-2.3168455E-1,-7.1287885E-2,-1.5445438E-1,1.112662E-1,9.635028E-2,3.737498E-1,-2.1932648E-1,2.0104298E-1,2.090204E-1,1.126945E0,9.769197E-2,1.1730428E0,-7.517644E-2,2.5023398E-1,2.0179872E-1,2.9600877E-1,7.7980205E-2,1.00268155E-1,2.2253355E-1,1.7745376E-1,2.9165876E-1,1.0882888E-1,7.4976325E-1,2.340054E-1,5.5372936E-1,1.839047E-1,1.0738937E-1,1.1406679E0,8.070319E-1,9.862421E-1,3.3682412E-1,-1.9140933E-1,3.5036123E-1,-1.0793616E-2,1.887464E-1,-2.0041768E-1,-2.6086912E-2,-2.0044026E-1,7.33334E-1,5.2846456E-1,1.7401154E-1,1.4013751E-1,-2.0317923E-1,1.8462601E-1,1.0465428E-1,1.9088757E-1,1.5252708E-1,3.7223417E-1,1.1690052E-1,1.5373203E-1,7.04126E-2,6.07045E-1,1.41994E-1,4.9527335E-1,2.4036138E-1,1.5444127E-1,1.870588E-1,-2.0683134E-2,-1.6200297E-1,1.5023714E-1,2.3735899E-1,1.5359956E-1,-2.2552805E-1,7.7306586E-3,3.8944978E-1,2.9124755E-1,1.4729968E-1,4.3113347E-2,-1.5923117E-1,3.270566E-1,-2.2163413E-1,6.804463E-1,1.8769844E-1,3.921463E-1,5.066978E-1,1.6362453E-1,-4.521034E-2,1.3790677E-1,5.398579E-1,4.8208326E-1,1.5960436E-1,3.937837E-1,1.6963841E-1,1.2546148E0,1.7333205E-1,7.329911E-1,2.1582471E-1,4.38713E-2,1.6099551E-1,-2.0289166E-1,1.4784569E-1,1.4068611E-1,2.2702453E-1,5.363521E-2,1.2501702E-1,3.0316556E-1,7.1513146E-2,1.9271809E-1,1.9484285E-1,4.5458734E-1,1.08191624E-1,2.000001E0,-1.962984E-1,2.2503051E-1,1.0734306E-1,6.60984E-1,-1.5088612E-1,3.356905E-1,1.7097387E-2,2.3528531E-1,1.037205E-1,1.4213327E-1,7.78134E-2,2.515661E-1,1.189459E-1,5.6750697E-1,2.2759779E-1,2.1459673E-1,6.377278E-1,2.6112133E-1,-1.990284E-2,-1.7341739E-1,1.510959E-1,3.4678853E-1,-1.8328589E-1,1.7940314E-1,-4.1370213E-2,-2.5092304E-1,2.6763883E-1,-2.2417794E-1,3.403437E-1,2.8182447E-1,-2.3285028E-1,-7.131398E-3,2.5449032E-1,-6.1619412E-2,-1.1529749E-1,1.8752629E-1,-1.8619162E-1,1.0415724E-2,5.6672376E-2,2.4895212E-1,1.1033854E0,-2.250366E-1,3.8465422E-1,6.3164485E-1,6.694493E-2,1.970162E-1,-1.7090093E-1,1.4851627E-1,2.1889682E-1,-9.256325E-2,1.983952E-1,1.2231149E-1,1.3431782E-1,-1.3666417E-1,4.450649E-2,2.0268147E-1,1.9660442E-1,1.2997875E-1,2.0360622E-1,3.7202138E-1,2.0691122E-1,2.7825835E-1,2.3401658E-1,4.4015743E-2,1.963573E-1,2.6808614E-1,1.1348258E-1,1.2329303E-1,1.3880078E-1,2.000001E0,2.4292865E-1,1.479742E-1,2.0420007E-1,1.7974411E-1,-8.709921E-2,1.9198892E-1,2.5276807E-1,-1.019791E-2,-1.9817926E-1,-4.2135824E-2,2.4928078E-1,6.630485E-1,-1.88753E-1,1.1523705E-1,1.1668189E-1,2.6305327E-1,-1.8939549E-1,1.4415947E-1,2.5692284E-1,2.4371901E-1,-2.6019944E-2,8.608263E-2,1.5925002E-1,-3.3454457E-4,2.886023E-1,1.1879663E0,1.3066308E-1,3.9986503E-1,3.733157E-1,8.549737E-1,4.5803526E-1,-6.1619412E-2,1.1972103E-1,1.04120106E-1,2.2214478E-2,1.5013546E-1,-2.0676333E-1,2.7978912E-1,3.4739658E-1,2.2932294E-1,2.670573E-1,6.8204254E-1,-2.3279043E-1,4.374443E-2,2.0992485E-1,3.6642198E-2,2.8877985E-1,1.5161225E-2,-2.3706208E-1,6.36568E-2,-1.9982441E-1,8.840911E-2,-2.3891246E-1,1.3642347E-1,1.5756143E-2,1.794779E-1,1.8182631E-1,-1.23579256E-1,1.8179697E-1,-1.712398E-1,-2.3500589E-1,-5.906353E-2,1.5743954E-1,-1.2385396E-1,-2.2161977E-1,9.0438485E-2,-2.0321275E-1,-1.7806333E-2,2.2674908E-1,-1.6105019E-1,5.7407375E-2,-1.8138407E-1,-1.806305E-1,2.1295732E-1,-1.1596923E-1,1.9979565E-1,-3.1948335E-2,1.904003E-1,-1.6610056E-1,2.0856404E-1,-2.0822413E-1,-4.1773872E-4,1.0030486E-1,-1.9961582E-1,-4.5349672E-2,1.7500794E-1,2.0999826E-1,-9.8039955E-2,-2.1866801E-1,6.46831E-2,1.8864329E-1,-2.0172969E-1,-2.4100588E-1,-1.1488576E-2,-2.0077062E-1,-3.6253262E-2,2.1497238E-1,-1.3522597E-1,-2.1653213E-1,4.2979695E-2,-2.1267855E-1,-6.493293E-2,-1.2358639E-2,1.570697E-1,-1.5040128E-1,1.3608943E-1,-2.3536424E-1,-1.05160356E-1,-8.711694E-2,1.907937E-1,9.900019E-2,-1.837077E-1,-2.7259724E-2,-2.39135E-1,-3.1816016E-3,-3.06435E-1,-2.7325904E-1,1.9604228E-1],"split_indices":[239,340,213,444,213,479,398,389,465,234,140,353,0,334,234,162,431,234,255,11,0,215,234,239,225,429,0,234,277,231,239,197,375,340,435,359,455,0,0,0,140,301,402,0,0,0,0,0,377,0,110,334,133,208,398,0,0,107,290,239,625,108,158,431,523,516,0,147,321,592,623,419,447,614,0,616,0,586,0,0,0,429,180,102,57,0,375,642,0,479,315,103,575,592,180,586,140,357,255,269,0,0,0,0,197,0,0,353,263,70,0,0,140,0,177,234,325,265,340,0,97,203,407,0,166,234,547,55,532,0,0,290,0,454,592,0,0,110,217,479,340,547,506,334,398,0,554,70,182,0,431,0,0,97,0,0,0,234,398,0,155,477,321,0,0,0,140,0,375,0,0,407,0,70,35,0,0,375,0,0,388,0,0,0,234,615,0,166,129,444,0,0,575,610,0,502,0,0,0,0,0,0,103,456,155,0,572,0,0,0,38,309,197,592,23,112,592,368,0,0,0,0,0,0,0,258,642,0,70,625,80,0,625,23,625,0,0,0,0,541,492,0,265,590,348,372,0,375,431,0,375,0,180,172,375,221,185,0,0,0,0,0,0,0,0,0,0,0,0,0,0,0,0,0,0,0,0,0,0,0,0,0,0,0,0,0,0,0,0,0,0,0,0,0,0,0,0,0,0,0,0,0,0,0,0,0,0,0,0,0,0,0,0,0,0,0,0,0,0,0,0,0,0,0,0,0,0,0,0,0,0,0,0],"split_type":[0,0,0,0,0,0,0,0,0,0,0,0,0,0,0,0,0,0,0,0,0,0,0,0,0,0,0,0,0,0,0,0,0,0,0,0,0,0,0,0,0,0,0,0,0,0,0,0,0,0,0,0,0,0,0,0,0,0,0,0,0,0,0,0,0,0,0,0,0,0,0,0,0,0,0,0,0,0,0,0,0,0,0,0,0,0,0,0,0,0,0,0,0,0,0,0,0,0,0,0,0,0,0,0,0,0,0,0,0,0,0,0,0,0,0,0,0,0,0,0,0,0,0,0,0,0,0,0,0,0,0,0,0,0,0,0,0,0,0,0,0,0,0,0,0,0,0,0,0,0,0,0,0,0,0,0,0,0,0,0,0,0,0,0,0,0,0,0,0,0,0,0,0,0,0,0,0,0,0,0,0,0,0,0,0,0,0,0,0,0,0,0,0,0,0,0,0,0,0,0,0,0,0,0,0,0,0,0,0,0,0,0,0,0,0,0,0,0,0,0,0,0,0,0,0,0,0,0,0,0,0,0,0,0,0,0,0,0,0,0,0,0,0,0,0,0,0,0,0,0,0,0,0,0,0,0,0,0,0,0,0,0,0,0,0,0,0,0,0,0,0,0,0,0,0,0,0,0,0,0,0,0,0,0,0,0,0,0,0,0,0,0,0,0,0,0,0,0,0,0,0,0,0,0,0,0,0,0,0,0,0,0,0,0,0,0,0,0,0,0,0,0,0,0,0,0,0,0,0,0,0,0,0],"sum_hessian":[9.645904E3,7.607813E3,2.0380916E3,6.493471E3,1.1143419E3,4.070025E1,1.9973914E3,5.7268154E3,7.666559E2,3.5448475E1,1.0788934E3,3.946607E1,1.2341805E0,3.068649E1,1.9667048E3,1.1059451E3,4.62087E3,1.4827977E2,6.183761E2,3.4252438E1,1.1960378E0,1.5921838E1,1.0629716E3,3.6379868E1,3.0862017E0,2.9230162E1,1.456326E0,4.313335E1,1.9235715E3,1.0972017E3,8.743413E0,5.628311E2,4.058039E3,1.3022627E2,1.8053503E1,8.553997E1,5.328361E2,3.307449E1,1.177947E0,1.6978385E0,1.4224E1,1.3040114E2,9.3257043E2,3.517271E1,1.2071567E0,1.8611716E0,1.2250301E0,1.223339E0,2.8006823E1,1.0993252E1,3.21401E1,8.810968E0,1.9147605E3,1.0782057E3,1.8995977E1,1.1860499E0,7.5573626E0,5.275815E2,3.524963E1,4.10266E2,3.647773E3,1.1340222E2,1.6824043E1,1.3497631E1,4.5558715E0,7.868441E1,6.855563E0,5.5732346E0,5.272629E2,9.273958E0,4.950042E0,9.364421E0,1.2103672E2,9.293388E2,3.231641E0,2.6793514E1,1.2133086E0,2.8340206E1,3.7998927E0,1.2390044E0,7.571964E0,1.5249376E1,1.8995111E3,1.0747378E3,3.467943E0,4.09388E0,1.4902097E1,5.263561E2,1.2254395E0,3.4150834E0,3.1834545E1,3.9221008E2,1.8055922E1,3.495196E3,1.5257692E2,1.06795E2,6.6072288E0,1.0590265E1,6.2337775E0,1.1272673E1,2.2249584E0,3.3364227E0,1.2194489E0,4.9320683E0,7.375234E1,3.8892808E0,1.6839538E0,5.2062378E1,4.752005E2,8.032949E0,1.2410088E0,1.2375851E0,3.7124565E0,4.810886E0,4.5535355E0,3.8075352E0,1.1722919E2,9.258073E2,3.531467E0,2.205258E0,2.4588257E1,2.5906015E1,2.4341908E0,1.4595253E0,1.378985E1,2.0105648E1,1.8794055E3,1.0685984E3,6.1393986E0,2.2397158E0,1.2282273E0,1.2653338E1,2.2487588E0,5.2296313E2,3.3928902E0,2.1957233E0,1.2193601E0,3.4503493E0,2.8384195E1,3.8270654E2,9.503531E0,3.7237382E0,1.4332183E1,2.3812582E2,3.2570703E3,2.7114463E0,1.4986548E2,1.0186977E2,4.9252276E0,1.4477596E0,5.159469E0,1.1962632E0,9.394002E0,4.818742E0,1.4150358E0,1.2027775E0,1.0069896E1,5.8641613E1,1.5110726E1,9.525452E0,4.2536926E1,7.2203846E0,4.679801E2,1.2214631E0,6.8114862E0,1.235456E0,2.4770007E0,1.4686368E0,3.0848987E0,1.9095259E0,1.8980093E0,1.1483058E2,2.3986008E0,5.2533307E0,9.2055396E2,2.3543115E0,1.1771557E0,2.3411673E1,1.1765851E0,1.9553394E0,2.3950676E1,1.2282435E0,1.2059474E0,2.2268517E0,1.1562999E1,1.5800212E1,4.305435E0,6.304062E1,1.8163649E3,1.0666255E3,1.9729108E0,1.9359353E0,4.2034636E0,1.1413758E1,1.2395802E0,5.217467E2,1.2164705E0,2.1918194E0,1.2010708E0,1.21601E0,2.2343395E0,1.2133234E0,2.7170872E1,3.7999704E2,2.7095087E0,1.974555E0,7.528976E0,2.4813929E0,1.2423453E0,1.7379165E0,1.2594266E1,2.2973912E2,8.386705E0,2.1155307E2,3.045517E3,1.4518439E2,4.68108E0,9.924273E1,2.6270378E0,1.2345133E0,3.6907146E0,3.9461522E0,1.2133169E0,3.6062887E0,1.2124529E0,5.3281765E1,5.359847E0,2.8999214E0,1.2210804E1,6.6778727E0,3.5859055E1,3.8390925E0,3.3812919E0,4.5969418E2,8.285929E0,1.2392015E0,1.237799E0,1.8916063E0,1.1932924E0,1.0936069E2,5.469895E0,1.1771557E0,4.0761747E0,9.1583307E2,4.7209215E0,2.2235086E1,1.1765851E0,2.0564533E1,3.386143E0,1.2168691E0,1.034613E1,5.031859E0,1.0768353E1,5.6812145E1,6.228473E0,1.3385978E1,1.8029789E3,1.0610018E3,5.62365E0,2.9624052E0,1.2410583E0,9.429607E0,1.9841511E0,5.2053827E2,1.2084023E0,2.524675E1,1.9241233E0,3.7779672E2,2.200322E0,1.4726589E0,1.2368498E0,1.2362224E0,6.2927537E0,1.2406964E0,1.135357E1,2.2642036E2,3.3187544E0,1.6944964E0,6.6922092E0,2.0888812E2,2.6649494E0,2.2337097E2,2.8221462E3,1.4271416E2,2.4702344E0,1.4664276E0,3.2146523E0,9.752727E1,1.7154604E0,5.1050156E1,2.2316098E0,1.2040405E0,4.1558065E0,1.2452139E0,1.09655905E1,4.714789E0,1.9630837E0,3.313612E1,2.7229362E0,1.2175131E0,2.1637788E0,4.5583218E2,3.8620062E0,1.9480497E0,6.337879E0,1.0677095E2,2.5897424E0,1.9093432E0,3.5605516E0,2.6371164E0,1.4390584E0,9.130079E2,2.8251736E0,1.9877564E0,2.733165E0,2.104855E1,1.1865367E0,1.4872241E0,1.9077309E1,2.1871314E0,1.1990114E0,4.682034E0,5.664096E0,2.6379733E0,8.13038E0,5.373448E1,3.0776641E0,1.7333665E0,4.4951067E0,9.340905E0,4.0450726E0,3.1202402E0,1.7998586E3],"tree_param":{"num_deleted":"0","num_feature":"650","num_nodes":"333","size_leaf_vector":"0"}},{"base_weights":[-5.794576E-4,-2.298454E-1,1.1293464E0,-4.9092516E-1,8.7914616E-1,-1.2785698E0,1.1968334E0,-6.438816E-1,6.870214E-1,-1.2449825E0,9.3024355E-1,-1.314871E0,2.7322339E-2,1.206983E0,-1.2561798E0,-1.437366E0,-4.9973044E-1,-4.5080012E-1,9.5785064E-1,-1.4354155E0,5.644845E-1,-8.013563E-1,9.660246E-1,-1.90206E-2,-1.350625E0,-9.319696E-1,1.2179002E0,-1.4413507E0,9.3529284E-2,-5.5817324E-1,1.2426667E0,-6.2937164E-1,8.167709E-1,5.358526E-2,1.1024749E0,-7.567614E-1,1.2987105E0,-9.2185414E-1,9.414684E-1,1.9017954E-1,1.031156E0,-3.3506745E-1,-1.3705497E0,1.5370513E-1,-1.2641697E0,-1.3660942E0,1.2257661E0,-1.4456233E0,-1.3866436E-1,-6.885766E-1,2.1558243E-1,1.3926446E0,-2.4703819E-1,1.4567494E0,-7.256191E-1,1.1589414E0,-2.8711268E-1,-1.2664926E0,2.0724428E-1,-8.156222E-1,1.1299195E0,3.8358358E-1,-9.929888E-1,3.975177E-1,-1.4895742E0,-8.989117E-1,1.050936E0,-1.3885579E0,-4.1437957E-1,-4.265581E-1,-1.3994852E0,-3.386551E-1,-1.57229E0,1.125339E0,1.4246117E0,-1.4483858E0,2.3780757E-1,-1.0206252E0,9.845006E-1,-7.554168E-1,6.679353E-1,-1.355181E0,4.2154506E-1,-4.6447963E-1,1.5038636E0,1.4816059E0,-6.7078453E-1,-8.136739E-1,1.2113771E0,1.4370165E0,-3.1777936E-1,-9.201338E-1,9.3071735E-1,-3.2184672E-1,-1.4095472E0,-1.2102796E0,3.4446496E-1,9.6813595E-1,-1.3759239E0,-9.8473054E-1,1.1555703E0,-1.0685333E0,3.353633E-1,-9.606028E-1,5.380522E-1,-1.7555603E0,1.4781302E-2,-1.1725123E0,9.0818447E-1,-7.260896E-1,1.0720602E0,-1.3472664E0,1.1353469E0,1.4342928E0,-3.9862075E-1,-1.4505482E0,9.073225E-2,-7.962235E-1,1.3935302E0,-8.1369823E-1,7.7261823E-1,-1.3912158E0,3.3717975E-1,4.7307393E-1,-1.609309E0,-8.8174117E-1,4.9566725E-1,1.5832946E0,-8.8678586E-1,1.1963995E0,-1.0280867E0,-9.446879E-1,4.7110075E-1,1.557552E0,2.4802883E-1,-1.4242021E0,-9.640194E-2,-1.2724625E0,4.8684952E-1,8.051071E-2,-1.737623E0,-1.3579152E0,4.671204E-2,-3.462649E-1,1.1936437E0,-1.6583104E-1,-1.13428E0,-1.3252883E0,8.956044E-1,-7.9589105E-1,6.6937506E-1,9.128389E-1,-1.4767401E0,9.202678E-1,-9.2418224E-1,-1.1335249E0,1.0856355E0,-1.8986495E0,1.142673E0,1.4420834E0,-4.7448763E-1,-1.5905163E0,8.513051E-1,-1.4525102E0,-1.32000465E-2,-8.3337224E-1,1.4183421E0,-1.895905E-1,1.5484228E0,1.1283487E0,-1.1267735E0,-1.1782509E0,8.6620903E-1,-1.4249916E0,-7.245254E-2,-1.6928552E0,5.1657873E-1,-1.0089217E0,-2.0136227E-1,1.6502972E0,-9.246473E-1,-1.5745345E0,-2.724324E-2,-2.9774016E-1,-1.3204165E0,-1.0099908E0,1.4468138E0,1.0973966E0,-1.1579446E0,8.802285E-1,-2.1251692E-1,1.227606E0,-1.0544869E0,-5.888427E-1,1.2232014E0,-1.1873025E0,-7.5798124E-2,-1.4894377E0,-1.6027504E-1,-9.856015E-2,-1.1424884E0,-9.7498626E-1,7.7973545E-1,3.397854E-1,-1.1796489E0,4.1700515E-1,-1.583331E0,1.9300538E-1,1.1195077E0,-8.0362236E-1,1.1539458E0,-5.462373E-1,1.4488606E0,-1.4546187E0,-1.11559734E-1,-8.6861366E-1,1.288489E0,-8.879252E-1,1.5179111E0,-1.1531284E0,3.2747263E-1,1.6421819E0,9.273644E-2,2.9640377E-1,-1.3288095E0,9.449413E-1,-9.767287E-1,-1.4371833E0,-3.4919244E-1,-1.6835325E0,5.5641055E-1,-3.557223E-1,1.7024534E0,-1.1583558E0,-2.176125E-1,-1.0918028E0,4.672519E-1,-1.0810117E0,1.1283456E0,-9.0132225E-1,1.5406419E0,1.242166E0,-5.785356E-1,-7.8057003E-1,1.0701503E0,-1.6059608E0,4.6805373E-1,1.1215402E0,-1.4193053E0,-1.709998E0,1.2386672E0,-2.714675E-1,-1.2719991E0,-3.7531048E-1,2.2269315E-1,-3.8295206E-1,-1.3462633E0,-1.440615E0,6.2132437E-2,8.671274E-1,-1.2147572E0,-1.2726688E0,-1.8271476E-1,3.8145372E-1,-1.4221351E0,1.1407111E0,-1.6206439E-1,-1.1231234E0,1.8537146E-1,-1.2628884E0,1.1628618E0,1.4546665E0,-5.7523376E-1],"categories":[],"categories_nodes":[],"categories_segments":[],"categories_sizes":[],"default_left":[1,1,0,1,0,1,1,0,0,0,0,0,0,0,0,1,1,1,0,0,0,1,0,0,0,0,0,1,0,1,1,0,1,0,0,0,0,0,0,0,0,0,1,0,0,1,1,1,0,1,0,0,0,0,1,0,1,0,0,0,0,0,1,0,0,1,0,0,0,0,0,0,0,0,1,1,0,0,0,1,0,1,1,1,1,0,0,1,1,0,0,0,0,0,0,1,0,0,1,0,0,0,0,1,0,0,0,0,0,0,0,0,0,1,0,1,0,1,0,0,0,1,0,0,0,0,0,1,0,0,0,1,1,0,0,0,0,0,1,0,0,0,0,0,0,0,1,1,0,0,0,0,0,0,0,1,0,0,0,0,0,0,0,1,0,1,0,0,1,0,0,0,1,1,0,0,0,0,0,0,0,0,0,0,0,1,0,0,0,1,1,0,1,0,0,0,0,0,0,0,0,1,1,0,1,0,0,1,1,1,0,0,1,0,0,0,0,0,0,0,0,0,0,0,0,0,0,0,0,0,0,0,0,0,0,0,0,0,0,0,0,0,0,0,0,0,0,0,0,0,0,0,0,0,0,0,0,0,0,0,0,0,0,0,0,0,0,0,0,0,0,0,0],"id":3,"left_children":[1,3,5,7,9,11,13,15,17,19,21,23,-1,25,-1,27,29,31,33,-1,35,37,39,-1,41,43,45,47,-1,49,51,53,55,57,59,-1,-1,61,-1,63,65,-1,67,-1,69,71,73,75,77,79,81,83,85,-1,87,89,91,93,95,97,99,-1,101,103,105,107,109,-1,-1,-1,-1,-1,-1,111,113,115,-1,-1,-1,117,119,121,123,125,127,-1,129,131,133,-1,-1,-1,-1,-1,-1,135,137,-1,139,141,143,145,-1,147,149,-1,-1,151,-1,153,155,-1,157,159,161,163,-1,165,167,169,171,173,-1,175,-1,177,-1,179,181,-1,183,185,187,-1,-1,-1,-1,-1,189,-1,-1,-1,-1,191,193,-1,195,197,-1,199,201,-1,-1,-1,203,205,207,-1,209,211,-1,-1,-1,213,-1,215,217,219,221,-1,223,-1,225,227,-1,-1,229,-1,-1,231,233,-1,-1,235,-1,237,-1,239,-1,241,243,-1,245,247,249,251,-1,-1,-1,253,255,257,259,-1,261,-1,-1,263,265,267,269,-1,271,-1,-1,-1,-1,-1,-1,-1,-1,-1,-1,-1,-1,-1,-1,-1,-1,-1,-1,-1,-1,-1,-1,-1,-1,-1,-1,-1,-1,-1,-1,-1,-1,-1,-1,-1,-1,-1,-1,-1,-1,-1,-1,-1,-1,-1,-1,-1,-1,-1,-1,-1,-1,-1,-1,-1,-1,-1,-1,-1,-1],"loss_changes":[2.4045684E3,2.2346118E3,2.5595996E2,1.1259276E3,1.6079468E2,2.082367E0,3.944751E1,6.3172656E2,2.2180756E2,1.2862919E1,8.979712E1,1.9212646E0,0E0,3.657666E1,0E0,5.3170166E0,4.7733398E2,3.1931433E1,7.5869934E1,0E0,4.9100924E0,7.091503E0,7.096216E1,0E0,3.6795044E-1,3.1783495E0,3.2375732E1,4.515991E0,0E0,4.57177E2,3.4352036E1,2.5597733E1,6.970826E0,1.6713943E1,2.7268005E1,0E0,0E0,3.0018368E0,0E0,3.9002304E1,5.0532227E1,0E0,1.0939789E-1,0E0,1.3337898E-1,5.3888035E-1,2.8479492E1,4.2719727E0,4.844598E0,3.5198303E2,2.1216362E2,2.9293335E1,1.1814403E1,0E0,2.1026955E1,6.047228E0,4.680056E0,7.08107E-1,1.4715183E1,8.968674E0,2.7925232E1,0E0,3.0722313E0,1.94043E1,4.958845E0,7.846097E0,4.905957E1,0E0,0E0,0E0,0E0,0E0,0E0,2.6415527E1,9.4279785E0,2.9379883E0,0E0,0E0,0E0,3.2512085E2,2.8945427E1,5.1072083E0,6.1350197E1,3.8770862E0,2.625238E1,0E0,9.60414E0,1.9463997E1,1.451561E0,0E0,0E0,0E0,0E0,0E0,0E0,1.4614229E0,1.6228458E1,0E0,3.420473E0,2.5494142E0,2.8339294E1,1.3447742E0,0E0,7.711684E0,1.6354677E1,0E0,0E0,9.182148E0,0E0,5.972719E0,3.930066E1,0E0,2.4444946E1,8.109375E0,6.467937E0,2.355835E0,0E0,2.995432E2,1.726706E1,8.892753E0,3.2248566E1,3.222458E0,0E0,5.4153633E1,0E0,3.45901E-1,0E0,2.286789E1,2.8235533E0,0E0,1.9711399E0,1.7526276E1,1.2619274E1,0E0,0E0,0E0,0E0,0E0,1.752894E1,0E0,0E0,0E0,0E0,1.5618054E1,2.582721E1,0E0,1.2515354E0,1.378993E0,0E0,1.9542627E0,1.5780319E1,0E0,0E0,0E0,5.0887575E0,6.4261417E0,3.800757E1,0E0,2.2875854E1,7.4959717E0,0E0,0E0,0E0,2.2155762E0,0E0,2.67886E2,1.5172386E1,3.8948634E0,8.467926E0,0E0,3.6415844E0,0E0,2.4687286E1,4.522705E-1,0E0,0E0,4.957901E1,0E0,0E0,1.3585602E1,3.999195E-1,0E0,0E0,3.2172928E0,0E0,1.6516037E1,0E0,8.961244E0,0E0,2.2121567E1,1.7956146E1,0E0,8.64453E0,1.35917015E1,2.339801E1,1.4150867E0,0E0,0E0,0E0,4.3330866E-1,3.5396242E-1,2.8179245E0,1.4669529E1,0E0,9.081745E-1,0E0,0E0,1.4977764E1,3.327661E1,2.2147694E0,2.2909668E1,0E0,6.66687E0,0E0,0E0,0E0,0E0,0E0,0E0,0E0,0E0,0E0,0E0,0E0,0E0,0E0,0E0,0E0,0E0,0E0,0E0,0E0,0E0,0E0,0E0,0E0,0E0,0E0,0E0,0E0,0E0,0E0,0E0,0E0,0E0,0E0,0E0,0E0,0E0,0E0,0E0,0E0,0E0,0E0,0E0,0E0,0E0,0E0,0E0,0E0,0E0,0E0,0E0,0E0,0E0,0E0,0E0,0E0,0E0,0E0,0E0,0E0,0E0],"parents":[2147483647,0,0,1,1,2,2,3,3,4,4,5,5,6,6,7,7,8,8,9,9,10,10,11,11,13,13,15,15,16,16,17,17,18,18,20,20,21,21,22,22,24,24,25,25,26,26,27,27,29,29,30,30,31,31,32,32,33,33,34,34,37,37,39,39,40,40,42,42,44,44,45,45,46,46,47,47,48,48,49,49,50,50,51,51,52,52,54,54,55,55,56,56,57,57,58,58,59,59,60,60,62,62,63,63,64,64,65,65,66,66,73,73,74,74,75,75,79,79,80,80,81,81,82,82,83,83,84,84,86,86,87,87,88,88,95,95,96,96,98,98,99,99,100,100,101,101,103,103,104,104,107,107,109,109,110,110,112,112,113,113,114,114,115,115,117,117,118,118,119,119,120,120,121,121,123,123,125,125,127,127,128,128,130,130,131,131,132,132,138,138,143,143,144,144,146,146,147,147,149,149,150,150,154,154,155,155,156,156,158,158,159,159,163,163,165,165,166,166,167,167,168,168,170,170,172,172,173,173,176,176,179,179,180,180,183,183,185,185,187,187,189,189,190,190,192,192,193,193,194,194,195,195,199,199,200,200,201,201,202,202,204,204,207,207,208,208,209,209,210,210,212,212],"right_children":[2,4,6,8,10,12,14,16,18,20,22,24,-1,26,-1,28,30,32,34,-1,36,38,40,-1,42,44,46,48,-1,50,52,54,56,58,60,-1,-1,62,-1,64,66,-1,68,-1,70,72,74,76,78,80,82,84,86,-1,88,90,92,94,96,98,100,-1,102,104,106,108,110,-1,-1,-1,-1,-1,-1,112,114,116,-1,-1,-1,118,120,122,124,126,128,-1,130,132,134,-1,-1,-1,-1,-1,-1,136,138,-1,140,142,144,146,-1,148,150,-1,-1,152,-1,154,156,-1,158,160,162,164,-1,166,168,170,172,174,-1,176,-1,178,-1,180,182,-1,184,186,188,-1,-1,-1,-1,-1,190,-1,-1,-1,-1,192,194,-1,196,198,-1,200,202,-1,-1,-1,204,206,208,-1,210,212,-1,-1,-1,214,-1,216,218,220,222,-1,224,-1,226,228,-1,-1,230,-1,-1,232,234,-1,-1,236,-1,238,-1,240,-1,242,244,-1,246,248,250,252,-1,-1,-1,254,256,258,260,-1,262,-1,-1,264,266,268,270,-1,272,-1,-1,-1,-1,-1,-1,-1,-1,-1,-1,-1,-1,-1,-1,-1,-1,-1,-1,-1,-1,-1,-1,-1,-1,-1,-1,-1,-1,-1,-1,-1,-1,-1,-1,-1,-1,-1,-1,-1,-1,-1,-1,-1,-1,-1,-1,-1,-1,-1,-1,-1,-1,-1,-1,-1,-1,-1,-1,-1,-1],"split_conditions":[1.0098703E-1,8.718957E-2,3.4883627E-1,8.930054E-2,4.7192758E-1,1.378281E-2,3.0151522E-1,1.0016286E0,3.682106E-1,6.5825933E-1,1.7314425E0,6.497569E-1,4.098351E-3,3.7529615E-1,-1.8842699E-1,1.5935808E-1,1.13075316E-1,1.0526951E-1,2.7202636E-1,-2.1531233E-1,2.1679734E-1,1.7141719E-1,1.7140445E-1,-2.8530902E-3,5.247476E-1,1.2757583E-1,1.4488204E0,7.780935E-2,1.4029393E-2,1.460481E-1,1.3489938E-1,6.1038965E-1,2.405512E-1,2.613422E-1,3.8055602E-1,-1.1351421E-1,1.9480658E-1,1.14371546E-1,1.4122027E-1,1.2728807E-1,5.896293E-1,-5.026012E-2,2.2907886E-1,2.3055771E-2,1.1545992E-1,1.8251358E-1,1.05073735E-1,2.0346022E-1,1.1250744E-1,1.3929945E-1,1.9250801E0,2.5375265E-1,4.1147542E-1,2.1851243E-1,1.8913567E-1,2.9165876E-1,1.0882888E-1,1.7104432E-1,2.7568385E-1,2.5165826E-1,8.733339E-1,5.7537537E-2,1.5741254E-1,6.1631805E-1,1.7061087E-1,1.451264E-1,1.126945E0,-2.082837E-1,-6.2156938E-2,-6.3983716E-2,-2.0992279E-1,-5.079827E-2,-2.358435E-1,9.61519E-2,3.1918037E-1,1.2970027E-1,3.5671137E-2,-1.5309379E-1,1.476751E-1,1.4115992E-1,3.6815038E-1,2.84849E-1,2.8284618E-1,1.0617955E-1,2.3428228E-1,2.222409E-1,4.5195192E-1,7.970235E-2,1.3437249E-1,2.1555248E-1,-4.7666907E-2,-1.3802008E-1,1.3960761E-1,-4.827701E-2,-2.1143208E-1,1.8636394E-1,5.9566486E-1,1.452204E-1,1.0012175E-1,5.5372936E-1,4.7142524E-1,3.9296687E-1,5.03045E-2,1.415123E-1,2.3335662E-1,-2.6333407E-1,2.2171955E-3,4.5173347E-1,1.3622768E-1,7.33334E-1,3.060537E-1,-2.0208998E-1,3.3253074E-1,3.1074226E-1,4.9960095E-1,2.4291295E-1,1.3609838E-2,1.652208E-1,2.551762E-1,4.1985267E-1,4.1200027E-1,3.6482185E-1,5.0576966E-2,1.7383099E-1,-2.4139635E-1,2.0830992E-1,7.435009E-2,2.0031795E-1,3.1907353E-1,1.7945993E-1,1.7591947E-1,2.4805158E-1,9.678341E-2,2.336328E-1,3.7204325E-2,-2.1363032E-1,-1.4460291E-2,-1.9086938E-1,1.2320616E-1,1.2076608E-2,-2.6064345E-1,-2.0368728E-1,7.0068063E-3,3.602264E-1,3.50241E-1,-2.4874657E-2,2.5179064E-1,1.0915415E-2,1.3434066E-1,1.2755573E-1,3.23464E-1,1.3692583E-1,-2.2151102E-1,1.3804018E-1,3.937837E-1,1.099591E-1,1.2546148E0,-2.8479743E-1,4.343181E-1,3.355499E-1,-7.117315E-2,-2.3857746E-1,1.2769577E-1,1.6015321E-1,-1.9800072E-3,1.4689437E-1,2.5735578E-1,5.103991E-1,8.2234815E-2,1.692523E-1,2.5750503E-1,-1.7673764E-1,9.169744E-2,4.2943794E-1,-1.0867881E-2,-2.539283E-1,2.4847499E-1,-1.5133826E-1,-3.020434E-2,3.9135295E-1,4.0969312E-1,-2.3618019E-1,-4.086486E-3,1.4564735E-1,-1.9806248E-1,1.0864915E-1,2.1702208E-1,2.2939819E-1,-1.7369169E-1,2.5221038E-1,1.5545413E-1,1.8414092E-1,9.9526025E-2,2.589708E-1,1.1473727E0,3.5036123E-1,-1.1369719E-2,-2.2341566E-1,-2.4041258E-2,1.2390828E-1,3.422007E-1,1.9096562E-1,2.4514602E-1,5.0967813E-2,2.894349E-2,6.2550776E-2,-2.3749965E-1,4.1100633E-1,2.3114982E-1,6.753778E-2,9.8435295E-1,-8.19356E-2,2.737682E-1,-2.1819282E-1,-1.6733961E-2,-1.3029206E-1,1.9327335E-1,-1.3318878E-1,2.2768667E-1,-1.7296927E-1,4.9120896E-2,2.463273E-1,1.3910466E-2,4.4460565E-2,-1.9932143E-1,1.417412E-1,-1.465093E-1,-2.155775E-1,-5.2378867E-2,-2.525299E-1,8.346158E-2,-5.335835E-2,2.5536802E-1,-1.7375338E-1,-3.2641876E-2,-1.6377044E-1,7.008779E-2,-1.6215175E-1,1.6925184E-1,-1.3519834E-1,2.310963E-1,1.8632491E-1,-8.678035E-2,-1.1708551E-1,1.6052255E-1,-2.4089414E-1,7.0208065E-2,1.6823104E-1,-2.1289581E-1,-2.564997E-1,1.8580009E-1,-4.0720128E-2,-1.9079988E-1,-5.6296576E-2,3.3403974E-2,-5.744281E-2,-2.0193951E-1,-2.1609227E-1,9.319866E-3,1.3006912E-1,-1.8221359E-1,-1.9090034E-1,-2.7407216E-2,5.721806E-2,-2.1332027E-1,1.7110667E-1,-2.430966E-2,-1.6846852E-1,2.780572E-2,-1.8943328E-1,1.7442928E-1,2.1819998E-1,-8.628507E-2],"split_indices":[340,239,213,444,213,263,277,213,465,399,398,265,0,638,0,520,162,234,255,0,389,334,234,0,635,431,398,97,0,234,255,516,435,447,140,0,0,431,0,239,615,0,11,0,340,375,592,321,321,31,398,375,639,0,11,431,523,353,200,592,455,0,233,403,234,375,133,0,0,0,0,0,0,239,44,585,0,0,0,18,233,338,225,234,14,0,334,239,523,0,0,0,0,0,0,69,545,0,97,147,111,191,0,508,388,0,0,460,0,429,274,0,440,8,25,204,0,177,231,575,225,378,0,239,0,162,0,274,14,0,431,562,431,0,0,0,0,0,321,0,0,0,0,89,550,0,63,353,0,234,378,0,0,0,166,431,547,0,145,339,0,0,0,647,0,415,226,547,340,0,4,0,479,172,0,0,235,0,0,394,105,0,0,234,0,70,0,486,0,357,197,0,592,592,118,616,0,0,0,234,639,231,231,0,136,0,0,166,153,375,133,0,225,0,0,0,0,0,0,0,0,0,0,0,0,0,0,0,0,0,0,0,0,0,0,0,0,0,0,0,0,0,0,0,0,0,0,0,0,0,0,0,0,0,0,0,0,0,0,0,0,0,0,0,0,0,0,0,0,0,0,0,0],"split_type":[0,0,0,0,0,0,0,0,0,0,0,0,0,0,0,0,0,0,0,0,0,0,0,0,0,0,0,0,0,0,0,0,0,0,0,0,0,0,0,0,0,0,0,0,0,0,0,0,0,0,0,0,0,0,0,0,0,0,0,0,0,0,0,0,0,0,0,0,0,0,0,0,0,0,0,0,0,0,0,0,0,0,0,0,0,0,0,0,0,0,0,0,0,0,0,0,0,0,0,0,0,0,0,0,0,0,0,0,0,0,0,0,0,0,0,0,0,0,0,0,0,0,0,0,0,0,0,0,0,0,0,0,0,0,0,0,0,0,0,0,0,0,0,0,0,0,0,0,0,0,0,0,0,0,0,0,0,0,0,0,0,0,0,0,0,0,0,0,0,0,0,0,0,0,0,0,0,0,0,0,0,0,0,0,0,0,0,0,0,0,0,0,0,0,0,0,0,0,0,0,0,0,0,0,0,0,0,0,0,0,0,0,0,0,0,0,0,0,0,0,0,0,0,0,0,0,0,0,0,0,0,0,0,0,0,0,0,0,0,0,0,0,0,0,0,0,0,0,0,0,0,0,0,0,0,0,0,0,0,0,0,0,0,0,0,0,0,0,0,0,0,0,0],"sum_hessian":[9.280128E3,7.7154355E3,1.5646926E3,6.245639E3,1.4697965E3,4.2169014E1,1.5225236E3,5.528249E3,7.1739014E2,3.3977573E1,1.435819E3,4.1021816E1,1.1471968E0,1.5167559E3,5.767784E0,8.485283E2,4.6797207E3,1.377987E2,5.7959143E2,3.092922E1,3.0483525E0,2.8635302E1,1.4071837E3,1.1425861E0,3.987923E1,7.273802E0,1.509482E3,8.463837E2,2.1445422E0,4.5285073E3,1.5121371E2,1.2122446E2,1.6574247E1,8.0104904E1,4.994865E2,1.0779248E0,1.9704278E0,2.7224102E1,1.4112E0,1.0928626E2,1.2978975E3,1.1101795E0,3.876905E1,1.8301E0,5.4437017E0,4.0570054E0,1.505425E3,8.4350745E2,2.876277E0,3.8754724E3,6.5303467E2,1.3744174E2,1.3771968E1,4.7228684E0,1.1650159E2,1.2614317E1,3.9599316E0,7.5970187E0,7.250788E1,6.640851E0,4.9284567E2,1.1798352E0,2.6044266E1,9.795826E1,1.1327999E1,1.2715473E1,1.285182E3,3.7608532E1,1.1605176E0,1.3346231E0,4.109079E0,1.1197708E0,2.9372344E0,1.0046737E3,5.007513E2,8.422649E2,1.2425839E0,1.6622763E0,1.2140007E0,3.6939036E3,1.815689E2,7.5054634E1,5.7798004E2,7.586516E0,1.2985524E2,2.2198393E0,1.1552129E1,1.1199049E2,4.511098E0,1.0638004E1,1.9763119E0,2.7664137E0,1.1935179E0,1.4265778E0,6.1704407E0,5.709313E0,6.679857E1,1.4133792E0,5.227472E0,5.458466E0,4.873872E2,2.4827879E1,1.2163874E0,8.63871E0,8.931955E1,9.48412E0,1.8438791E0,1.1348442E1,1.3670311E0,1.4706015E1,1.270476E3,3.511366E0,1.00116235E3,4.9831863E2,2.4326668E0,8.4114075E2,1.124155E0,3.6256843E3,6.821921E1,1.1534989E1,1.700339E2,7.366407E1,1.3905635E0,5.6442596E2,1.3554126E1,5.3452377E0,2.2412784E0,1.26006294E2,3.8489413E0,1.4783205E0,1.0073809E1,1.0186734E2,1.0123147E1,2.8648252E0,1.6462727E0,4.5557694E0,1.1535432E0,4.763798E0,6.203477E1,1.1946099E0,4.032862E0,3.7758214E0,1.6826445E0,1.1850274E1,4.7553693E2,1.9246519E0,2.2903227E1,7.459233E0,1.1794777E0,7.5516186E0,8.176793E1,1.1901263E0,1.0158316E1,1.1878765E0,1.3518138E1,7.2672396E0,1.2632087E3,1.7897825E0,9.9937256E2,4.9653656E2,1.7820687E0,1.1057577E0,1.3269092E0,8.399835E2,1.157211E0,3.5664812E3,5.9203075E1,6.059766E0,6.2159443E1,1.2398646E0,1.0295125E1,7.253237E0,1.6278067E2,7.174599E1,1.9180847E0,1.0367313E1,5.540586E2,4.096595E0,1.2486429E0,1.2306056E2,2.945728E0,1.6760497E0,2.1728916E0,3.4565618E0,6.6172466E0,9.9721985E1,2.1453593E0,7.547733E0,2.5754135E0,3.9537273E1,2.2497498E1,3.4500089E0,8.400266E0,7.448195E0,4.6808875E2,2.1694769E1,1.2084587E0,6.2939477E0,1.1652849E0,2.9336581E0,4.617961E0,4.6499186E0,7.711801E1,2.2173479E0,1.130079E1,1.6505471E0,5.6166925E0,4.642668E1,1.216782E3,5.350229E0,9.9402234E2,1.4163502E0,4.951202E2,8.385802E2,1.403323E0,3.5087952E3,5.7685944E1,2.1225188E0,5.7080555E1,1.6866232E0,4.3731422E0,5.827773E1,3.8817132E0,1.2217584E0,9.073366E0,1.5657874E2,6.2019405E0,7.060986E1,1.1361232E0,9.118748E0,5.449399E2,2.9709845E0,1.2008958E2,1.7341726E0,1.2115555E0,1.4864336E0,1.9701282E0,9.699494E1,2.7270427E0,1.182417E0,6.365316E0,3.179662E1,7.7406554E0,1.58635E1,6.633999E0,6.1264396E0,2.273826E0,2.3198462E0,5.128349E0,1.8804635E0,4.6620828E2,2.192473E0,1.9502296E1,1.4855932E0,1.4480648E0,1.5859375E0,3.0320232E0,2.9406276E0,1.7092909E0,7.442232E1,2.6956985E0,1.0083369E1,1.217421E0,4.22598E1,4.166883E0,1.1970863E3,1.9695713E1,3.9413328E0,1.4088961E0,3.1366372E0,9.908857E2,4.9398465E2,1.1355811E0],"tree_param":{"num_deleted":"0","num_feature":"650","num_nodes":"273","size_leaf_vector":"0"}},{"base_weights":[-6.4341794E-4,-2.041749E-1,1.0311484E0,-4.4196767E-1,7.603009E-1,-1.1847099E0,1.092814E0,-5.5185866E-1,8.714695E-1,-1.178441E0,8.154964E-1,-1.2209896E0,2.5120148E-2,-8.6091375E-1,1.1038866E0,-1.3431766E0,-4.2281336E-1,9.8082876E-1,-6.0618126E-1,-1.3469536E0,1.263533E-1,3.415566E-1,9.2857647E-1,-4.2025456E-1,-1.2995197E0,-2.1227806E-4,-1.2204677E0,1.1126957E0,-1.1315695E0,-1.350635E0,-4.1242987E-2,-1.3961523E0,-3.228699E-1,3.813072E-2,1.0614773E0,-7.6275796E-1,1.1498545E0,-7.9527175E-1,1.2594181E0,-1.2694432E0,4.2863134E-1,5.604061E-1,1.0537411E0,-1.0090309E0,7.8610694E-1,-9.154831E-1,8.613937E-1,-2.4191879E-1,-1.38922E0,1.0064087E0,1.3154957E0,-1.353868E0,3.841929E-1,1.1069664E0,-1.1034201E0,-1.4085263E0,1.3746121E0,-3.830664E-1,1.0913739E0,1.0987145E0,-1.984882E-1,-1.7778265E-1,1.1083152E0,8.602685E-1,-9.0219957E-1,-1.3206913E0,-3.2676858E-1,-1.9195102E0,4.7925764E-1,2.7368456E-1,1.2687119E0,-6.853419E-1,1.08345E0,-1.3633978E0,1.0175191E0,-9.491503E-1,1.3229722E0,-1.3567126E0,2.1802254E-1,-1.4266019E0,3.4471703E-1,-1.3739048E0,-3.069962E-1,-1.1021127E-1,1.1946495E0,1.2573435E0,1.9925472E-1,-4.1884172E-1,1.2825155E0,1.1661602E0,-8.2968163E-1,1.1365601E0,-9.4746953E-1,-1.0440733E0,8.6205304E-1,-1.4465139E0,5.3623325E-1,1.2294671E-1,1.1469079E0,-3.6257467E-1,1.295688E0,-3.0544382E-1,-1.0878435E0,-1.5992277E0,1.0983322E0,5.704073E-1,1.0797035E0,-6.2478113E-1,1.3316673E0,-1.3589374E0,9.4857804E-2,-1.4426738E0,4.5960468E-1,1.2605283E0,-5.378419E-1,-1.3954694E0,1.1093069E0,-1.3925974E0,-2.4140672E-1,8.218305E-1,-9.612919E-1,1.2288524E0,-1.5998074E0,-6.192166E-1,1.145755E0,7.9949534E-1,-1.0991827E0,1.1633275E0,-6.166416E-1,3.6571962E-1,-1.344475E0,-1.1526499E0,6.977016E-1,2.958191E-1,-1.7801172E0,5.958993E-1,-1.2932024E0,-8.1137486E-2,7.962198E-1,-2.958837E-1,1.2728746E0,-7.3853776E-2,1.328766E0,-5.8208996E-1,8.602642E-1,-1.1886966E0,-2.8419387E-1,1.1135633E0,-9.7617745E-1,6.398801E-1,-1.818821E0,1.0937288E0,-8.614991E-1,1.3411475E0,-3.653418E-1,-1.3609588E0,-2.7011793E-2,-1.4608217E0,-1.3393359E-1,-4.35224E-1,9.726776E-1,1.1755393E-2,-8.1128013E-1,-1.4078997E0,9.3955004E-1,-1.4087642E0,8.43916E-1,-1.2486616E0,-1.7012608E-1,-5.898588E-1,1.1742234E0,8.4035546E-1,-1.3687443E0,-7.8064704E-1,1.2815629E0,9.8638445E-1,-7.479884E-1,3.556823E-1,-1.327282E0,-6.7861617E-1,1.1894468E0,-1.1687223E0,8.5177666E-1,-1.2716944E0,1.6491419E-1,-4.8625687E-1,-1.964513E0,6.4834017E-1,-1.2381248E0,-4.0593332E-1,-1.9041815E0,-2.1689977E-1,1.0111498E0,9.3416464E-1,-1.2321091E0,5.5367768E-2,-5.1840144E-1,-1.3454634E-1,1.3341258E0,-2.23237E-1,1.3520415E0,-1.0623146E0,-2.0951565E-1,1.1297818E0,-7.559887E-1,7.948064E-1,-1.4749469E0,1.3087577E0,3.88657E-1,-6.982882E-1,1.1088808E0,-2.222778E0,1.8972912E-1,1.3490639E0,-5.279338E-1,-1.4084374E0,8.010704E-1,-1.3631403E0,-1.0205332E-1,-1.4673148E0,1.7255951E-1,1.0382441E0,-5.3851736E-1,-1.4234463E0,2.7933165E-1,-1.4208709E0,2.8674578E-2,-1.2720689E0,4.9706885E-1,-2.8501263E-1,4.46331E-1,2.955716E-1,1.2989209E0,-2.739076E-1,-1.5492676E0,1.5716362E-1,-1.1336317E0,-1.0984704E0,1.3214194E0,8.682452E-1,-8.758202E-1,-1.5334936E0,2.3558232E-4,-1.4106737E0,8.659103E-1,-1.448713E0,1.2058319E0,-1.3982943E0,-1.6856994E-1,-1.3276535E0,-1.0566271E-1,-9.99545E-1,7.129538E-1,-2.262615E0,-1.4996509E-1,-1.0399194E0,5.8966535E-1,1.3361098E0,-3.3412266E-1,1.2151005E0,-8.59518E-1,-9.888277E-1,1.0368122E0,4.6328135E-2,1.3905103E0,1.3733605E0,-8.059426E-2,6.277924E-1,-5.605138E-1,1.1439182E0,-9.554615E-1,-1.0184803E0,3.128336E-2,-1.7512429E0,-6.0990274E-1,1.3731923E0,-2.6340598E-1,-1.6285598E0,4.5631146E-1,-1.142597E0,8.0524015E-1,-1.6331421E0,1.1180774E0,-1.0681105E0,9.8787946E-1,1.3582088E0,-2.120791E-1],"categories":[],"categories_nodes":[],"categories_segments":[],"categories_sizes":[],"default_left":[1,1,0,1,0,1,0,0,1,0,0,0,0,0,1,1,0,0,1,0,0,0,0,0,0,0,0,1,0,1,1,1,1,0,0,0,0,0,0,1,0,1,0,0,0,0,0,0,0,0,0,1,0,0,0,1,0,0,0,1,1,0,1,0,1,0,0,0,0,1,0,0,0,0,0,0,0,1,0,1,0,1,0,0,1,0,0,1,0,0,0,1,1,1,0,0,1,1,0,0,0,0,1,0,1,1,1,0,1,1,0,1,0,0,0,1,0,1,0,0,0,0,0,0,0,0,1,0,1,0,0,1,0,0,0,1,0,1,1,1,0,0,0,0,0,0,0,1,0,0,0,0,0,1,0,1,0,1,0,0,0,0,0,1,0,1,0,1,1,0,0,0,0,1,0,0,0,0,1,0,0,0,0,1,0,0,0,0,0,0,0,0,1,0,0,0,0,0,0,0,1,0,0,1,0,0,0,1,0,1,0,0,0,1,0,0,0,0,0,0,0,0,0,0,0,0,0,0,0,0,0,0,0,0,0,0,0,0,0,0,0,0,0,0,0,0,0,0,0,0,0,0,0,0,0,0,0,0,0,0,0,0,0,0,0,0,0,0,0,0,0,0,0,0,0,0,0,0,0,0,0,0,0,0,0,0,0],"id":4,"left_children":[1,3,5,7,9,11,13,15,17,19,21,23,-1,25,27,29,31,33,35,-1,37,39,41,43,-1,45,47,49,-1,51,53,55,57,59,61,63,-1,-1,-1,65,67,69,71,-1,-1,-1,-1,-1,-1,73,75,77,-1,-1,-1,79,-1,81,83,85,87,89,91,-1,93,-1,-1,-1,95,97,99,101,103,-1,105,-1,107,109,-1,111,113,115,117,119,121,-1,-1,123,-1,-1,125,127,129,131,-1,133,135,137,139,-1,141,143,145,-1,147,149,151,-1,153,155,-1,157,159,-1,161,163,-1,165,167,169,171,173,-1,175,-1,-1,177,179,181,-1,-1,183,-1,-1,185,187,189,191,193,195,197,-1,199,201,-1,-1,-1,203,205,207,-1,209,211,213,215,217,-1,219,221,-1,-1,-1,-1,223,-1,225,-1,227,229,-1,231,-1,233,235,237,-1,239,-1,241,243,245,247,-1,249,-1,-1,-1,251,253,255,-1,257,259,261,-1,-1,-1,-1,263,-1,265,-1,267,269,271,-1,273,275,277,279,281,-1,283,285,-1,-1,-1,-1,-1,-1,-1,-1,-1,-1,-1,-1,-1,-1,-1,-1,-1,-1,-1,-1,-1,-1,-1,-1,-1,-1,-1,-1,-1,-1,-1,-1,-1,-1,-1,-1,-1,-1,-1,-1,-1,-1,-1,-1,-1,-1,-1,-1,-1,-1,-1,-1,-1,-1,-1,-1,-1,-1,-1,-1,-1,-1,-1,-1,-1,-1,-1,-1,-1,-1,-1,-1,-1],"loss_changes":[1.8665183E3,1.7029248E3,2.0139331E2,8.6014185E2,1.581236E2,1.792038E0,3.1783203E1,5.607407E2,7.4966034E1,9.199192E0,7.624658E1,1.9050827E0,0E0,2.6593018E0,2.9176758E1,7.423828E0,4.5943793E2,3.256775E1,9.766969E0,0E0,6.8609905E0,3.9370243E1,5.2534058E1,4.315832E0,0E0,3.5742712E0,6.648779E-1,2.9124878E1,0E0,4.8153076E0,7.830425E0,1.7019104E1,3.6551785E2,8.960927E0,2.3128265E1,7.63052E0,0E0,0E0,0E0,2.663002E-1,3.2224686E1,5.9486504E1,4.51344E1,0E0,0E0,0E0,0E0,0E0,0E0,2.5902832E1,9.425293E0,3.7147217E0,0E0,0E0,0E0,1.4387085E1,0E0,3.096831E2,2.189151E1,6.780019E-1,1.0109056E1,1.4327808E1,2.3188995E1,0E0,8.003229E0,0E0,0E0,0E0,2.9147388E1,2.76325E1,4.193619E0,1.9680777E0,3.54989E1,0E0,2.5167297E1,0E0,8.983948E0,2.5942383E0,0E0,1.3825256E1,4.945348E0,1.7241089E1,2.718197E2,1.2525147E1,1.740718E1,0E0,0E0,8.950178E0,0E0,0E0,5.6438923E0,1.8367523E1,3.466772E0,5.8571053E0,0E0,5.0027103E0,2.8264328E1,2.4942896E1,6.0000267E0,0E0,3.879181E0,3.4449556E0,2.2258186E-1,0E0,2.7663086E1,2.0309822E1,2.307666E1,0E0,8.204407E0,2.015625E0,0E0,1.0035217E1,2.455683E0,0E0,5.189301E-1,9.768433E0,0E0,9.055267E0,2.5866434E2,4.4734864E0,7.165093E0,1.7965683E1,0E0,5.689746E0,0E0,0E0,3.7021694E0,1.8646423E1,6.1105137E0,0E0,0E0,4.213726E0,0E0,0E0,6.2077904E-1,2.4328445E1,3.7106638E0,2.0957853E1,1.2960968E1,2.863087E-1,2.648922E0,0E0,3.2476196E0,1.2043085E0,0E0,0E0,0E0,2.6185669E1,7.0579834E0,1.8450539E1,0E0,2.270282E1,9.567562E0,7.771057E0,5.325561E0,1.9511719E0,0E0,4.7581177E0,3.875223E0,0E0,0E0,0E0,0E0,8.000183E0,0E0,3.8061829E0,0E0,1.0363312E1,2.3869308E2,0E0,3.1908703E-1,0E0,9.7156525E-1,1.7391074E0,1.6292511E1,0E0,5.4588747E0,0E0,2.3616095E0,7.8034906E0,1.7566772E1,9.139466E-1,0E0,1.3948708E0,0E0,0E0,0E0,2.610318E1,7.624177E0,3.5443144E0,0E0,2.3241177E1,7.0103636E0,8.938606E0,0E0,0E0,0E0,0E0,1.9354897E0,0E0,2.5688782E0,0E0,2.0378134E0,2.551941E1,1.6404939E0,0E0,2.5820637E-1,3.4396362E0,1.213096E1,5.8533573E0,2.2030518E1,0E0,5.6006494E0,7.0741577E0,0E0,0E0,0E0,0E0,0E0,0E0,0E0,0E0,0E0,0E0,0E0,0E0,0E0,0E0,0E0,0E0,0E0,0E0,0E0,0E0,0E0,0E0,0E0,0E0,0E0,0E0,0E0,0E0,0E0,0E0,0E0,0E0,0E0,0E0,0E0,0E0,0E0,0E0,0E0,0E0,0E0,0E0,0E0,0E0,0E0,0E0,0E0,0E0,0E0,0E0,0E0,0E0,0E0,0E0,0E0,0E0,0E0,0E0,0E0,0E0,0E0,0E0,0E0,0E0,0E0,0E0,0E0,0E0,0E0,0E0,0E0,0E0,0E0],"parents":[2147483647,0,0,1,1,2,2,3,3,4,4,5,5,6,6,7,7,8,8,9,9,10,10,11,11,13,13,14,14,15,15,16,16,17,17,18,18,20,20,21,21,22,22,23,23,25,25,26,26,27,27,29,29,30,30,31,31,32,32,33,33,34,34,35,35,39,39,40,40,41,41,42,42,49,49,50,50,51,51,55,55,57,57,58,58,59,59,60,60,61,61,62,62,64,64,68,68,69,69,70,70,71,71,72,72,74,74,76,76,77,77,79,79,80,80,81,81,82,82,83,83,84,84,87,87,90,90,91,91,92,92,93,93,95,95,96,96,97,97,98,98,100,100,101,101,102,102,104,104,105,105,106,106,108,108,109,109,111,111,112,112,114,114,115,115,117,117,118,118,119,119,120,120,121,121,123,123,126,126,127,127,128,128,131,131,134,134,135,135,136,136,137,137,138,138,139,139,140,140,142,142,143,143,147,147,148,148,149,149,151,151,152,152,153,153,154,154,155,155,157,157,158,158,163,163,165,165,167,167,168,168,170,170,172,172,173,173,174,174,176,176,178,178,179,179,180,180,181,181,183,183,187,187,188,188,189,189,191,191,192,192,193,193,198,198,200,200,202,202,203,203,204,204,206,206,207,207,208,208,209,209,210,210,212,212,213,213],"right_children":[2,4,6,8,10,12,14,16,18,20,22,24,-1,26,28,30,32,34,36,-1,38,40,42,44,-1,46,48,50,-1,52,54,56,58,60,62,64,-1,-1,-1,66,68,70,72,-1,-1,-1,-1,-1,-1,74,76,78,-1,-1,-1,80,-1,82,84,86,88,90,92,-1,94,-1,-1,-1,96,98,100,102,104,-1,106,-1,108,110,-1,112,114,116,118,120,122,-1,-1,124,-1,-1,126,128,130,132,-1,134,136,138,140,-1,142,144,146,-1,148,150,152,-1,154,156,-1,158,160,-1,162,164,-1,166,168,170,172,174,-1,176,-1,-1,178,180,182,-1,-1,184,-1,-1,186,188,190,192,194,196,198,-1,200,202,-1,-1,-1,204,206,208,-1,210,212,214,216,218,-1,220,222,-1,-1,-1,-1,224,-1,226,-1,228,230,-1,232,-1,234,236,238,-1,240,-1,242,244,246,248,-1,250,-1,-1,-1,252,254,256,-1,258,260,262,-1,-1,-1,-1,264,-1,266,-1,268,270,272,-1,274,276,278,280,282,-1,284,286,-1,-1,-1,-1,-1,-1,-1,-1,-1,-1,-1,-1,-1,-1,-1,-1,-1,-1,-1,-1,-1,-1,-1,-1,-1,-1,-1,-1,-1,-1,-1,-1,-1,-1,-1,-1,-1,-1,-1,-1,-1,-1,-1,-1,-1,-1,-1,-1,-1,-1,-1,-1,-1,-1,-1,-1,-1,-1,-1,-1,-1,-1,-1,-1,-1,-1,-1,-1,-1,-1,-1,-1,-1],"split_conditions":[1.0098703E-1,8.133386E-2,3.4883627E-1,1.1071466E-1,4.7192758E-1,1.378281E-2,3.7529615E-1,1.0016286E0,2.2421233E-1,6.5825933E-1,1.8544528E0,2.32865E-1,3.7680224E-3,1.3676475E-1,3.0151522E-1,7.599288E-2,9.473592E-2,2.7202636E-1,2.3044607E-1,-2.0204306E-1,2.2042015E-1,1.1007312E-1,1.1492309E-1,3.1529295E-1,-1.9492796E-1,4.5202202E-1,2.639606E-1,1.0216533E-1,-1.6973543E-1,1.9649188E-1,1.0840109E-1,1.4482796E-1,1.00268155E-1,2.3342656E-1,3.8138464E-1,5.126063E-1,1.7247818E-1,-1.1929077E-1,1.8891273E-1,4.229765E-2,1.1138244E0,1.0730317E-1,1.5819075E0,-1.5135464E-1,1.1791605E-1,-1.3732247E-1,1.2920906E-1,-3.6287818E-2,-2.0838301E-1,1.4488204E0,7.215682E-1,2.0346022E-1,5.762894E-2,1.6604497E-1,-1.6551302E-1,1.02316335E-1,2.0619182E-1,8.784293E-2,1.3852596E-1,1.486845E-1,2.4938923E-1,4.8785412E-1,4.1650176E-1,1.2904027E-1,2.1168947E-1,-1.9810371E-1,-4.9015287E-2,-2.8792655E-1,1.1883483E0,4.9521964E-2,2.8997326E-1,4.4384784E-1,2.3701191E-1,-2.0450969E-1,1.1611301E-1,-1.4237255E-1,2.9101306E-1,1.5427434E-1,3.270338E-2,1.4460543E-1,2.2257555E-1,1.3440514E-1,7.259297E-2,1.499767E-1,2.626335E-1,1.8860154E-1,2.9888209E-2,2.2787637E-1,1.9237734E-1,1.7492405E-1,3.285473E-1,2.85887E-1,1.2940681E-1,1.5489575E-1,1.2930796E-1,2.0131692E-1,2.932208E-1,9.61283E-2,9.3497854E-1,-5.4386202E-2,2.6658046E-1,4.0915066E-1,2.5260678E-1,-2.3988415E-1,3.8876185E-1,2.7733204E-1,3.296733E-1,-9.371717E-2,3.1918037E-1,4.398227E-2,1.4228671E-2,1.2545371E-1,2.2886264E-1,1.8907925E-1,3.0637127E-1,1.0345855E-1,1.6639605E-1,1.8044275E-1,2.000001E0,4.0577394E-1,3.3970052E-1,3.084858E-1,-2.3997112E-1,6.7873335E-1,1.7186326E-1,1.1992431E-1,1.1751279E-1,3.7148523E-1,2.4228515E-1,5.4857943E-2,-2.0167126E-1,1.0511404E-1,1.0465524E-1,4.4372868E-2,6.403431E-1,2.1682677E-1,2.2128837E-1,1.7283905E-1,3.0599254E-1,1.1936146E-1,2.2910348E-1,-1.1078067E-2,3.2500213E-1,3.3066428E-1,1.2903963E-1,-1.783045E-1,-4.262908E-2,3.9653754E-1,5.492948E-1,1.4770652E-1,-2.7282315E-1,4.4036803E-1,7.9326296E-1,3.6469114E-1,4.9960095E-1,1.6015321E-1,-4.051769E-3,1.1460145E-1,9.9371076E-2,-6.5283604E-2,1.4590165E-1,1.763309E-3,-1.21692024E-1,1.1502631E-1,1.4093252E-1,1.2558845E-1,1.265874E-1,1.3880078E-1,1.5962283E-1,-8.847882E-2,1.035578E-1,1.2605332E-1,1.1902689E-1,1.6242042E-1,9.0459883E-1,1.4795767E-1,3.2734805E-1,5.335235E-2,1.6849932E-1,4.7013795E-1,1.1473727E0,1.4817667E-1,1.277665E-1,1.7127332E-1,2.4737129E-2,-7.293853E-2,-2.9467696E-1,5.283989E-1,1.0166299E0,1.738607E-1,-2.8562725E-1,2.6656136E-1,2.0308873E-1,6.6001195E-1,-1.8481636E-1,8.305166E-3,-7.776022E-2,-2.0181952E-2,2.5572658E-1,-3.348555E-2,2.4357343E-1,-1.593472E-1,1.2460003E-1,4.3742198E-1,2.3407069E-1,1.19220965E-1,1.0103266E0,3.301918E-1,6.6371167E-1,6.1893135E-2,3.5126263E-1,-3.3341673E-1,8.860081E-1,2.3459375E-1,-7.919007E-2,-2.1126561E-1,1.20160565E-1,-2.0447107E-1,-1.5307999E-2,-2.2009723E-1,2.5883928E-2,1.5573663E-1,-8.077761E-2,-2.1351695E-1,4.189975E-2,-2.1313064E-1,4.301187E-3,-1.9081034E-1,7.456033E-2,-4.2751897E-2,6.694965E-2,4.433574E-2,1.9483814E-1,-4.108614E-2,-2.3239015E-1,2.3574544E-2,-1.7004476E-1,-1.6477057E-1,1.982129E-1,1.3023679E-1,-1.3137303E-1,-2.3002405E-1,3.533735E-5,-2.1160106E-1,1.2988655E-1,-2.1730696E-1,1.808748E-1,-2.0974416E-1,-2.5285492E-2,-1.9914804E-1,-1.5849408E-2,-1.4993176E-1,1.0694308E-1,-3.3939224E-1,-2.2494765E-2,-1.5598792E-1,8.8449806E-2,2.0041648E-1,-5.01184E-2,1.8226509E-1,-1.2892771E-1,-1.4832416E-1,1.5552184E-1,6.9492203E-3,2.0857656E-1,2.0600408E-1,-1.2089139E-2,9.4168864E-2,-8.4077075E-2,1.7158774E-1,-1.4331923E-1,-1.5277205E-1,4.692504E-3,-2.6268643E-1,-9.148541E-2,2.0597886E-1,-3.95109E-2,-2.4428399E-1,6.8446726E-2,-1.7138955E-1,1.20786026E-1,-2.4497132E-1,1.6771162E-1,-1.6021657E-1,1.4818193E-1,2.0373133E-1,-3.1811867E-2],"split_indices":[340,239,213,444,213,263,638,213,465,399,234,346,0,431,277,444,321,255,562,0,431,234,239,390,0,25,592,592,0,520,523,0,625,110,53,586,0,0,0,399,288,70,398,0,0,0,0,0,0,398,561,321,0,0,0,204,0,234,234,321,530,89,434,0,11,0,0,0,201,340,350,398,329,0,340,0,62,555,0,484,334,54,431,89,398,0,0,215,0,0,592,368,234,460,0,197,459,592,231,0,163,398,375,0,129,157,56,0,44,375,0,35,53,0,540,174,0,122,398,496,31,550,0,12,0,0,97,474,521,0,0,592,0,0,616,571,234,110,288,375,437,0,79,398,0,0,0,133,375,625,0,35,45,79,25,647,0,86,575,0,0,0,0,309,0,329,0,592,375,0,97,0,70,155,28,0,368,0,523,25,118,97,0,403,0,0,0,23,101,234,0,191,142,293,0,0,0,0,130,0,24,0,239,547,375,0,221,574,440,239,132,0,140,140,0,0,0,0,0,0,0,0,0,0,0,0,0,0,0,0,0,0,0,0,0,0,0,0,0,0,0,0,0,0,0,0,0,0,0,0,0,0,0,0,0,0,0,0,0,0,0,0,0,0,0,0,0,0,0,0,0,0,0,0,0,0,0,0,0,0,0,0,0,0,0,0,0],"split_type":[0,0,0,0,0,0,0,0,0,0,0,0,0,0,0,0,0,0,0,0,0,0,0,0,0,0,0,0,0,0,0,0,0,0,0,0,0,0,0,0,0,0,0,0,0,0,0,0,0,0,0,0,0,0,0,0,0,0,0,0,0,0,0,0,0,0,0,0,0,0,0,0,0,0,0,0,0,0,0,0,0,0,0,0,0,0,0,0,0,0,0,0,0,0,0,0,0,0,0,0,0,0,0,0,0,0,0,0,0,0,0,0,0,0,0,0,0,0,0,0,0,0,0,0,0,0,0,0,0,0,0,0,0,0,0,0,0,0,0,0,0,0,0,0,0,0,0,0,0,0,0,0,0,0,0,0,0,0,0,0,0,0,0,0,0,0,0,0,0,0,0,0,0,0,0,0,0,0,0,0,0,0,0,0,0,0,0,0,0,0,0,0,0,0,0,0,0,0,0,0,0,0,0,0,0,0,0,0,0,0,0,0,0,0,0,0,0,0,0,0,0,0,0,0,0,0,0,0,0,0,0,0,0,0,0,0,0,0,0,0,0,0,0,0,0,0,0,0,0,0,0,0,0,0,0,0,0,0,0,0,0,0,0,0,0,0,0,0,0,0,0,0,0,0,0,0,0,0,0,0,0,0,0,0,0,0,0],"sum_hessian":[8.88609E3,7.42269E3,1.4633994E3,5.955015E3,1.4676748E3,3.9129463E1,1.42427E3,5.495781E3,4.5923422E2,4.0064335E1,1.4276105E3,3.798128E1,1.1481819E0,7.593962E0,1.416676E3,7.692513E2,4.72653E3,4.279019E2,3.1332314E1,3.5453274E1,4.61106E0,2.75781E2,1.1518295E3,3.9595094E0,3.4021774E1,2.5324244E0,5.0615377E0,1.4116156E3,5.0604362E0,7.6483234E2,4.4189625E0,4.389241E2,4.2876055E3,3.383841E1,3.9406348E2,2.9286613E1,2.0457008E0,2.7071838E0,1.9038762E0,1.3445342E1,2.6233566E2,2.9362183E2,8.5820764E2,2.770779E0,1.1887304E0,1.1976491E0,1.3347753E0,1.1024286E0,3.959109E0,9.301097E2,4.8150592E2,7.6362885E2,1.2034535E0,2.1032212E0,2.3157413E0,4.374621E2,1.4620197E0,4.1132563E3,1.7434929E2,5.507785E0,2.8330627E1,1.4249444E1,3.7981403E2,1.9080882E0,2.7378525E1,1.2371751E1,1.0735916E0,4.757527E0,2.5757816E2,2.100003E2,8.362152E1,1.4043872E1,8.4416376E2,3.7723112E0,9.263374E2,1.1699692E0,4.8033594E2,7.623861E2,1.2427652E0,4.3318237E2,4.279733E0,2.920572E2,3.821199E3,1.3793868E1,1.6055542E2,4.3438196E0,1.1639651E0,2.528565E1,3.0449753E0,4.3966093E0,9.852836E0,3.7510748E2,4.7065473E0,2.5718552E1,1.6599727E0,6.7008734E0,2.5087727E2,1.8005891E2,2.9941393E1,1.1579505E0,8.246357E1,8.12964E0,5.9142323E0,4.0698504E0,8.4009393E2,1.14346664E2,8.119907E2,1.8198788E0,4.7851605E2,7.612831E2,1.1030201E0,4.2975568E2,3.4266953E0,1.8901266E0,2.3896065E0,2.8997702E2,2.0801706E0,2.1656133E2,3.6046377E3,6.6001887E0,7.19368E0,1.5916753E2,1.3878889E0,2.295064E1,2.3350122E0,1.1193874E0,8.733448E0,3.6979797E2,5.3095055E0,1.1108743E0,3.595673E0,2.4527803E1,1.1907488E0,1.0950322E0,5.605841E0,2.4360645E2,7.270818E0,1.3884988E2,4.1209026E1,2.295893E0,2.76455E1,1.9156675E0,8.0547905E1,6.974989E0,1.1546508E0,4.8290887E0,1.0851433E0,8.344307E2,5.663197E0,1.1182719E2,2.5194771E0,8.0659955E2,5.3911552E0,4.7606625E2,2.4498024E0,7.6010767E2,1.1753899E0,4.2376324E2,5.992413E0,1.3040637E0,2.1226315E0,1.1118506E0,1.2777559E0,2.8883646E2,1.1405561E0,2.1537459E2,1.186745E0,2.371396E2,3.367498E3,1.1838415E0,5.416347E0,1.1308583E0,6.0628214E0,3.7153695E0,1.5545216E2,1.2095335E0,2.1741106E1,1.107872E0,7.625576E0,4.8212414E0,3.6497675E2,4.007065E0,1.3024404E0,2.2527235E1,2.0005682E0,1.1529438E0,4.452897E0,2.3746309E2,6.1433706E0,3.6437418E0,3.6270761E0,1.242127E2,1.4637185E1,3.9089993E1,2.1190336E0,1.1817068E0,1.114186E0,1.1030544E0,2.6542446E1,1.0631952E0,7.948471E1,2.2384658E0,4.7365227E0,8.276465E2,6.78425E0,1.1140386E0,4.5491586E0,2.9383785E1,8.2443405E1,6.3848276E0,8.002147E2,1.8635322E0,3.527623E0,4.7433545E2,1.7307948E0,1.183727E0,1.2660754E0,7.5871014E2,1.3975601E0,4.221866E2,1.5766275E0,1.1357281E0,4.8566847E0,2.8635428E2,2.482187E0,2.135872E2,1.7873703E0,2.3426979E2,2.8698144E0,2.8389521E3,5.285461E2,1.0920165E0,4.3243303E0,1.21449E0,4.8483315E0,1.1677215E0,2.547648E0,2.1228824E0,1.5332927E2,1.1689878E0,2.0572119E1,6.4660106E0,1.1595654E0,3.32972E0,1.4915214E0,1.713228E0,3.6326352E2,2.935238E0,1.071827E0,2.1363377E1,1.1638582E0,8.41368E0,2.2904941E2,2.6083424E0,3.5350282E0,2.1989553E0,1.4447867E0,7.9879203E0,1.1622478E2,1.3514233E1,1.122952E0,1.5433689E0,3.7546623E1,1.1897922E0,2.5352654E1,7.836001E1,1.1247021E0,1.1661274E0,3.5703955E0,8.2252185E2,5.1246104E0,4.8676124E0,1.9166375E0,2.6714425E0,1.8777161E0,2.834849E1,1.0352956E0,1.9266214E0,8.051678E1,5.1137238E0,1.271104E0,2.0846605E0,7.9813007E2,1.238145E0,2.289478E0,4.717023E2,2.63316E0],"tree_param":{"num_deleted":"0","num_feature":"650","num_nodes":"287","size_leaf_vector":"0"}},{"base_weights":[-9.7091735E-4,-1.9093806E-1,9.107988E-1,-3.7993628E-1,8.191142E-1,-1.1465621E0,9.880858E-1,-4.737585E-1,9.3620074E-1,-7.4266624E-1,8.5020524E-1,-3.35769E-1,-1.2268615E0,9.02917E-1,1.3025458E0,-1.2745802E0,-3.572336E-1,-4.934836E-1,9.9851763E-1,-8.652612E-1,8.166714E-1,-1.2180526E0,8.738837E-1,-1.0476058E0,1.1493063E0,-1.2586706E0,6.4849146E-2,6.7584676E-1,1.0303549E0,1.3123804E0,-6.4011186E-1,-1.2822593E0,-1.9997433E-1,-4.422822E-1,7.089846E-1,8.124159E-1,-8.3416945E-1,1.0435537E0,-7.3842096E-1,-2.314909E-2,-9.3593043E-1,4.6494976E-1,9.6689236E-1,-1.2954671E0,-2.8367093E-1,5.1291376E-1,1.0362831E0,-2.7821156E-1,1.056706E0,1.322392E0,-3.86114E-1,-1.2851998E0,1.9994986E-1,-1.1819179E0,1.0649862E0,-1.2875215E0,-3.5203004E-1,-1.2434899E0,8.714451E-1,2.0849231E-1,9.4560426E-1,8.713302E-1,-1.0559286E0,1.0877599E0,-4.9002072E-1,7.0827293E-1,-9.764739E-1,-1.7510475E-1,-1.0603182E0,-1.7396119E0,5.138802E-1,2.1802631E-1,1.0116034E0,1.1184046E0,4.0804368E-1,1.1029567E0,-1.3057706E0,1.040604E0,-7.240934E-1,1.0658047E0,-1.8642498E0,-2.9044494E-1,1.3289214E0,-1.2877975E0,2.476881E-1,-1.3083764E0,3.8557768E-1,-1.30468E0,-2.776244E-1,8.9671296E-1,-1.3807851E0,-6.5724E-1,9.6979696E-1,-1.2239876E0,-1.9086827E-1,1.1097475E0,-9.6141034E-1,9.123913E-1,-8.967723E-1,-1.4502206E0,-5.1661365E-2,-8.701291E-1,6.0792005E-1,-1.1369318E0,-2.6181564E-1,5.704801E-1,-1.5108682E0,4.0099818E-1,-1.8366063E0,1.0294049E0,-7.731141E-1,-1.4338104E0,1.2867695E0,2.5628415E-1,8.698657E-1,-8.590565E-1,1.1296825E0,-1.5436451E0,-1.7796612E-1,-1.4487442E-1,1.0866982E0,-2.3784102E-1,1.3355498E0,-1.2903273E0,2.1631558E-1,-1.3159046E0,3.3285832E-1,1.1152731E0,-3.0632317E-1,-1.3257464E0,7.8168595E-1,-1.4148365E0,-2.2380044E-1,-1.4162205E0,-2.7567357E-1,-1.1334153E0,6.995556E-1,-9.658142E-1,1.0240921E0,-2.748838E-1,-1.2991358E0,5.3894144E-1,-8.30242E-1,1.1319151E0,-7.365249E-1,3.3695716E-2,-1.3112347E0,-1.4689904E-1,-9.855727E-1,-9.5679134E-1,9.043576E-1,-2.1113922E-1,-1.1900735E0,-1.0957469E0,6.377907E-1,-3.9659765E-1,6.851102E-1,1.0452371E0,-9.71929E-1,9.612084E-1,-1.4097272E0,-7.111911E-1,1.3689455E0,6.7404366E-1,4.0011518E-2,9.888761E-1,-1.8488849E0,-5.5030954E-1,1.1567535E0,-1.1577789E0,5.5342203E-1,-2.0220652E0,2.7559873E-1,1.1005476E0,-7.279653E-1,1.3389401E0,2.4743436E-1,-1.2926044E0,-9.335791E-2,-1.3221304E0,5.5934006E-1,4.5285553E-1,-8.604524E-1,-1.3452065E0,2.4333173E-1,1.3547568E0,-8.1873514E-2,-1.436757E0,7.458398E-1,-1.4467441E0,-1.7406242E-1,-1.4536368E0,-3.0228364E-1,-6.339911E-1,-1.3810298E0,1.1364407E-1,1.35292E0,-1.1675831E0,-2.4769664E-1,1.0873395E0,-6.2328434E-1,1.1476223E0,-1.2852662E0,3.2506222E-1,-1.1377071E0,-1.2058028E0,-4.9840206E-1,-1.245759E0,-2.751298E-1,-3.9572755E-1,-1.5987138E0,-1.1386324E0,7.0223594E-1,-1.7123455E0,-1.3873357E-1,-1.1619424E0,8.7233543E-1,1.0561615E0,-1.3518962E0,-2.1076849E0,7.8020054E-1,1.419365E0,-1.9200191E-1,-1.7077726E0,8.043951E-1,1.1838837E0,-5.119503E-2,-1.2292626E0,1.0571388E0,-5.104128E-1,1.1824216E0,2.065921E-1,-1.7288105E0,-6.4135265E-1,1.0441238E0,8.064023E-1,-1.2872176E0,1.1087017E0,-1.3220738E0,-1.7748251E0,2.2007324E-1,-1.2945906E0,-5.2480817E-2,-1.3282105E0,1.3646623E-1,-1.3551303E0,6.4352584E-1,1.1820894E0,-4.7318244E-1,-1.4485878E0,2.3615956E-1,-1.4714612E0,7.514907E-1,-1.0549005E0,-1.07751936E-1,-1.4883648E0,-4.0768906E-1,2.3835316E-1,-1.2434167E0,-7.531408E-2,2.1284774E-1,-3.1309387E-1,-1.3842632E0,1.1243644E0,-1.0798025E0,1.0853844E0,-9.0231305E-1,1.1620132E0,-1.3302408E0,-9.048216E-1,2.7827336E-2,-1.3052596E0,-3.3315685E-1,-9.837508E-1,5.436666E-1,7.604071E-1,-1.3377541E0,-1.179836E0,3.9289013E-1,2.161667E-1,-1.7783426E0,-8.1956536E-1,1.0331639E0,-9.352516E-1,1.0691783E0,3.1038886E-1,-2.1467369E0,-1.5482161E0,8.789395E-1,1.2528983E0,3.49747E-1,-1.5842327E-1,1.0305281E0,-6.59791E-1,1.1379527E0,1.2057291E0,-5.7952553E-1,-1.7707162E-1,9.7733384E-1,-1.5786774E0,-3.9210138E-1,1.1188878E0,-7.8433424E-1,8.6528486E-1,-6.9759625E-1],"categories":[],"categories_nodes":[],"categories_segments":[],"categories_sizes":[],"default_left":[1,1,0,1,0,0,1,0,0,1,0,0,1,0,1,1,1,0,1,0,0,0,0,0,0,1,0,1,0,1,0,1,0,0,0,0,0,1,0,0,0,0,0,0,0,0,1,0,1,0,0,1,0,0,0,1,0,0,0,0,0,0,1,1,0,0,0,0,1,0,1,1,1,0,1,0,0,0,0,0,0,0,0,1,0,1,0,1,0,0,1,0,0,0,1,1,1,0,0,0,0,0,0,0,0,0,0,1,0,1,0,0,0,0,1,0,0,0,0,0,1,0,1,1,0,1,0,0,0,1,0,1,0,1,0,1,0,1,1,0,0,0,0,1,1,0,0,0,0,0,0,0,1,0,0,0,0,1,0,0,0,0,1,0,0,0,0,0,0,0,0,0,1,1,0,0,0,1,0,1,0,0,0,1,0,0,0,1,0,1,0,1,0,1,0,0,0,0,0,1,0,1,0,0,0,0,0,1,0,0,0,0,1,0,0,0,0,0,1,0,0,0,0,0,0,1,1,0,0,0,1,0,0,0,0,0,0,1,0,0,0,0,0,0,0,0,0,0,0,0,0,0,0,0,0,0,0,0,0,0,0,0,0,0,0,0,0,0,0,0,0,0,0,0,0,0,0,0,0,0,0,0,0,0,0,0,0,0,0,0,0,0,0,0,0,0,0,0,0,0,0,0,0,0,0],"id":5,"left_children":[1,3,5,7,9,11,13,15,17,19,21,23,25,27,29,31,33,35,37,39,-1,-1,41,-1,-1,43,-1,45,47,49,-1,51,53,55,57,59,61,63,65,-1,67,69,71,-1,-1,73,75,77,79,81,-1,83,-1,-1,-1,85,87,89,91,-1,-1,-1,93,95,97,-1,99,101,103,-1,105,107,109,111,113,115,-1,-1,117,119,-1,-1,121,123,-1,125,127,129,131,-1,133,135,137,139,141,143,145,-1,147,-1,149,-1,-1,151,-1,153,-1,155,-1,157,159,-1,161,163,165,-1,167,-1,169,171,173,-1,175,177,-1,179,-1,-1,181,183,185,187,189,191,-1,193,195,197,199,-1,-1,-1,-1,201,203,-1,-1,-1,205,-1,-1,-1,207,209,211,213,215,217,219,-1,-1,-1,221,223,225,227,-1,-1,229,231,233,-1,235,237,239,-1,-1,241,-1,243,-1,-1,-1,245,247,-1,-1,249,-1,251,253,255,-1,257,-1,259,-1,261,-1,263,265,267,-1,-1,-1,-1,269,271,-1,273,-1,-1,275,-1,277,279,281,283,285,-1,-1,-1,-1,-1,287,289,291,-1,293,-1,295,-1,-1,-1,-1,297,299,301,-1,-1,303,-1,-1,-1,-1,-1,-1,-1,-1,-1,-1,-1,-1,-1,-1,-1,-1,-1,-1,-1,-1,-1,-1,-1,-1,-1,-1,-1,-1,-1,-1,-1,-1,-1,-1,-1,-1,-1,-1,-1,-1,-1,-1,-1,-1,-1,-1,-1,-1,-1,-1,-1,-1,-1,-1,-1,-1,-1,-1,-1,-1,-1,-1,-1,-1],"loss_changes":[1.4684934E3,1.3397317E3,2.3358093E2,7.303692E2,5.4348816E1,3.0641556E0,3.6572876E1,5.145044E2,3.5566956E1,4.936556E0,5.4207214E1,7.7456284E0,2.0622177E0,3.1492065E1,6.535919E0,5.5249023E0,4.3729156E2,8.290913E0,3.0305695E1,1.2280493E0,0E0,0E0,4.037805E1,0E0,0E0,1.3220749E0,0E0,2.312207E1,2.4796265E1,5.560211E0,0E0,3.2878418E0,8.90475E0,3.4004407E2,1.1412543E2,1.2838674E-1,6.2395735E0,2.5510712E1,4.1795583E0,0E0,1.6454163E0,2.255772E1,2.903009E1,0E0,0E0,1.7282593E1,2.0867065E1,9.467175E0,2.0504944E1,3.4972534E0,0E0,3.083252E0,0E0,0E0,0E0,1.5516785E1,2.855967E2,9.403145E0,5.01904E1,0E0,0E0,0E0,1.6416054E0,1.721634E1,7.099986E0,0E0,3.919591E0,2.6604636E0,7.075672E-1,0E0,2.3466072E1,1.9719503E1,2.6978455E1,1.9320045E1,1.6576317E1,7.3419037E0,0E0,0E0,4.9457874E0,1.774347E1,0E0,0E0,3.3753662E0,2.916748E0,0E0,5.691223E0,3.4058795E0,1.3870148E1,2.2880624E2,0E0,6.475601E-1,1.4049683E1,3.357538E1,4.000368E-1,1.979368E0,1.5366455E1,1.5553074E0,0E0,4.5723343E-1,0E0,4.4349976E0,0E0,0E0,4.7164917E-1,0E0,2.230045E1,0E0,1.0964508E1,0E0,2.6884033E1,1.0971636E1,0E0,7.323906E0,1.6401192E1,2.087532E1,0E0,6.1080017E0,0E0,6.4667892E0,1.0563219E1,1.7980408E1,0E0,7.5079346E-1,1.7659912E0,0E0,5.6831055E0,0E0,0E0,2.0302606E0,9.165405E0,1.866724E0,9.074738E0,2.1722202E2,6.2093353E-1,0E0,1.049921E0,2.123553E0,1.0112038E0,3.2153503E1,0E0,0E0,0E0,0E0,1.4811584E1,2.4220316E0,0E0,0E0,0E0,2.475071E-1,0E0,0E0,0E0,3.5427475E-1,2.1299849E0,2.206562E1,4.182289E0,1.3172323E1,2.265216E1,1.5426874E1,0E0,0E0,0E0,3.2232285E0,2.0610548E1,1.2670647E1,9.937775E0,0E0,0E0,5.6839447E0,3.3163428E0,3.7954798E0,0E0,1.0359678E1,1.4874573E1,6.1262884E0,0E0,0E0,1.6333008E0,0E0,3.9266357E0,0E0,0E0,0E0,6.517517E0,3.513975E0,0E0,0E0,3.659546E0,0E0,8.690308E0,2.0062024E2,2.777443E-1,0E0,4.022872E0,0E0,9.5286235E-2,0E0,8.139715E-1,0E0,2.4586487E1,6.607604E0,1.4009369E1,0E0,0E0,0E0,0E0,9.162884E-1,2.500019E-1,0E0,3.0810852E0,0E0,0E0,2.236264E1,0E0,7.094421E0,3.4974947E0,9.688787E0,2.1928345E1,6.1038556E0,0E0,0E0,0E0,0E0,0E0,1.17823105E1,7.802296E-2,1.3258818E1,0E0,8.504837E0,0E0,5.5126953E0,0E0,0E0,0E0,0E0,1.6865048E0,2.2475433E-1,1.3932617E1,0E0,0E0,2.9260678E0,0E0,0E0,0E0,0E0,0E0,0E0,0E0,0E0,0E0,0E0,0E0,0E0,0E0,0E0,0E0,0E0,0E0,0E0,0E0,0E0,0E0,0E0,0E0,0E0,0E0,0E0,0E0,0E0,0E0,0E0,0E0,0E0,0E0,0E0,0E0,0E0,0E0,0E0,0E0,0E0,0E0,0E0,0E0,0E0,0E0,0E0,0E0,0E0,0E0,0E0,0E0,0E0,0E0,0E0,0E0,0E0,0E0,0E0,0E0,0E0,0E0,0E0,0E0,0E0],"parents":[2147483647,0,0,1,1,2,2,3,3,4,4,5,5,6,6,7,7,8,8,9,9,10,10,11,11,12,12,13,13,14,14,15,15,16,16,17,17,18,18,19,19,22,22,25,25,27,27,28,28,29,29,31,31,32,32,33,33,34,34,35,35,36,36,37,37,38,38,40,40,41,41,42,42,45,45,46,46,47,47,48,48,49,49,51,51,55,55,56,56,57,57,58,58,62,62,63,63,64,64,66,66,67,67,68,68,70,70,71,71,72,72,73,73,74,74,75,75,78,78,79,79,82,82,83,83,85,85,86,86,87,87,88,88,90,90,91,91,92,92,93,93,94,94,95,95,96,96,98,98,100,100,103,103,105,105,107,107,109,109,110,110,112,112,113,113,114,114,116,116,118,118,119,119,120,120,122,122,123,123,125,125,128,128,129,129,130,130,131,131,132,132,133,133,135,135,136,136,137,137,138,138,143,143,144,144,148,148,152,152,153,153,154,154,155,155,156,156,157,157,158,158,162,162,163,163,164,164,165,165,168,168,169,169,170,170,172,172,173,173,174,174,177,177,179,179,183,183,184,184,187,187,189,189,190,190,191,191,193,193,195,195,197,197,199,199,200,200,201,201,206,206,207,207,209,209,212,212,214,214,215,215,216,216,217,217,218,218,224,224,225,225,226,226,228,228,230,230,235,235,236,236,237,237,240,240],"right_children":[2,4,6,8,10,12,14,16,18,20,22,24,26,28,30,32,34,36,38,40,-1,-1,42,-1,-1,44,-1,46,48,50,-1,